digraph Tree {
node [shape=box] ;
0 [label="X[1224] <= -0.01\ngini = 0.498\nsamples = 99999\nvalue = [53083, 46916]"] ;
1 [label="X[1732] <= 0.068\ngini = 0.426\nsamples = 48412\nvalue = [14914, 33498]"] ;
0 -> 1 [labeldistance=2.5, labelangle=45, headlabel="True"] ;
2 [label="X[1861] <= -0.104\ngini = 0.31\nsamples = 32422\nvalue = [6229, 26193]"] ;
1 -> 2 ;
3 [label="X[1224] <= -0.254\ngini = 0.46\nsamples = 9214\nvalue = [3305, 5909]"] ;
2 -> 3 ;
4 [label="X[1292] <= -0.255\ngini = 0.324\nsamples = 3908\nvalue = [795, 3113]"] ;
3 -> 4 ;
5 [label="X[1991] <= -0.081\ngini = 0.475\nsamples = 927\nvalue = [360, 567]"] ;
4 -> 5 ;
6 [label="X[27] <= 0.237\ngini = 0.409\nsamples = 617\nvalue = [177, 440]"] ;
5 -> 6 ;
7 [label="X[505] <= -0.234\ngini = 0.325\nsamples = 450\nvalue = [92, 358]"] ;
6 -> 7 ;
8 [label="X[2037] <= -0.256\ngini = 0.135\nsamples = 220\nvalue = [16, 204]"] ;
7 -> 8 ;
9 [label="X[329] <= 0.028\ngini = 0.046\nsamples = 169\nvalue = [4, 165]"] ;
8 -> 9 ;
10 [label="gini = 0.0\nsamples = 119\nvalue = [0, 119]"] ;
9 -> 10 ;
11 [label="gini = 0.147\nsamples = 50\nvalue = [4, 46]"] ;
9 -> 11 ;
12 [label="gini = 0.36\nsamples = 51\nvalue = [12, 39]"] ;
8 -> 12 ;
13 [label="X[1611] <= -0.119\ngini = 0.442\nsamples = 230\nvalue = [76, 154]"] ;
7 -> 13 ;
14 [label="X[69] <= -0.305\ngini = 0.499\nsamples = 120\nvalue = [58, 62]"] ;
13 -> 14 ;
15 [label="gini = 0.415\nsamples = 68\nvalue = [20, 48]"] ;
14 -> 15 ;
16 [label="gini = 0.393\nsamples = 52\nvalue = [38, 14]"] ;
14 -> 16 ;
17 [label="X[307] <= -0.272\ngini = 0.274\nsamples = 110\nvalue = [18, 92]"] ;
13 -> 17 ;
18 [label="gini = 0.0\nsamples = 51\nvalue = [0, 51]"] ;
17 -> 18 ;
19 [label="gini = 0.424\nsamples = 59\nvalue = [18, 41]"] ;
17 -> 19 ;
20 [label="X[405] <= -0.433\ngini = 0.5\nsamples = 167\nvalue = [85, 82]"] ;
6 -> 20 ;
21 [label="gini = 0.406\nsamples = 67\nvalue = [19, 48]"] ;
20 -> 21 ;
22 [label="X[1323] <= -0.123\ngini = 0.449\nsamples = 100\nvalue = [66, 34]"] ;
20 -> 22 ;
23 [label="gini = 0.211\nsamples = 50\nvalue = [44, 6]"] ;
22 -> 23 ;
24 [label="gini = 0.493\nsamples = 50\nvalue = [22, 28]"] ;
22 -> 24 ;
25 [label="X[2120] <= -0.418\ngini = 0.484\nsamples = 310\nvalue = [183, 127]"] ;
5 -> 25 ;
26 [label="gini = 0.42\nsamples = 80\nvalue = [24, 56]"] ;
25 -> 26 ;
27 [label="X[370] <= -0.27\ngini = 0.427\nsamples = 230\nvalue = [159, 71]"] ;
25 -> 27 ;
28 [label="gini = 0.163\nsamples = 67\nvalue = [61, 6]"] ;
27 -> 28 ;
29 [label="X[1224] <= -0.405\ngini = 0.48\nsamples = 163\nvalue = [98, 65]"] ;
27 -> 29 ;
30 [label="gini = 0.431\nsamples = 51\nvalue = [16, 35]"] ;
29 -> 30 ;
31 [label="X[292] <= -0.193\ngini = 0.392\nsamples = 112\nvalue = [82, 30]"] ;
29 -> 31 ;
32 [label="gini = 0.171\nsamples = 53\nvalue = [48, 5]"] ;
31 -> 32 ;
33 [label="gini = 0.488\nsamples = 59\nvalue = [34, 25]"] ;
31 -> 33 ;
34 [label="X[1991] <= -0.076\ngini = 0.249\nsamples = 2981\nvalue = [435, 2546]"] ;
4 -> 34 ;
35 [label="X[682] <= -0.122\ngini = 0.153\nsamples = 1983\nvalue = [165, 1818]"] ;
34 -> 35 ;
36 [label="X[62] <= 0.075\ngini = 0.077\nsamples = 1319\nvalue = [53, 1266]"] ;
35 -> 36 ;
37 [label="X[1755] <= 0.39\ngini = 0.064\nsamples = 1268\nvalue = [42, 1226]"] ;
36 -> 37 ;
38 [label="X[216] <= 0.202\ngini = 0.053\nsamples = 1216\nvalue = [33, 1183]"] ;
37 -> 38 ;
39 [label="X[1991] <= -0.1\ngini = 0.031\nsamples = 1023\nvalue = [16, 1007]"] ;
38 -> 39 ;
40 [label="X[2301] <= 0.175\ngini = 0.02\nsamples = 968\nvalue = [10, 958]"] ;
39 -> 40 ;
41 [label="X[115] <= 0.476\ngini = 0.011\nsamples = 908\nvalue = [5, 903]"] ;
40 -> 41 ;
42 [label="X[1191] <= 0.458\ngini = 0.002\nsamples = 839\nvalue = [1, 838]"] ;
41 -> 42 ;
43 [label="gini = 0.0\nsamples = 789\nvalue = [0, 789]"] ;
42 -> 43 ;
44 [label="gini = 0.039\nsamples = 50\nvalue = [1, 49]"] ;
42 -> 44 ;
45 [label="gini = 0.109\nsamples = 69\nvalue = [4, 65]"] ;
41 -> 45 ;
46 [label="gini = 0.153\nsamples = 60\nvalue = [5, 55]"] ;
40 -> 46 ;
47 [label="gini = 0.194\nsamples = 55\nvalue = [6, 49]"] ;
39 -> 47 ;
48 [label="X[1921] <= -0.117\ngini = 0.161\nsamples = 193\nvalue = [17, 176]"] ;
38 -> 48 ;
49 [label="gini = 0.385\nsamples = 50\nvalue = [13, 37]"] ;
48 -> 49 ;
50 [label="X[1788] <= -0.081\ngini = 0.054\nsamples = 143\nvalue = [4, 139]"] ;
48 -> 50 ;
51 [label="gini = 0.147\nsamples = 50\nvalue = [4, 46]"] ;
50 -> 51 ;
52 [label="gini = 0.0\nsamples = 93\nvalue = [0, 93]"] ;
50 -> 52 ;
53 [label="gini = 0.286\nsamples = 52\nvalue = [9, 43]"] ;
37 -> 53 ;
54 [label="gini = 0.338\nsamples = 51\nvalue = [11, 40]"] ;
36 -> 54 ;
55 [label="X[695] <= -0.209\ngini = 0.28\nsamples = 664\nvalue = [112, 552]"] ;
35 -> 55 ;
56 [label="X[1651] <= -0.108\ngini = 0.44\nsamples = 156\nvalue = [51, 105]"] ;
55 -> 56 ;
57 [label="gini = 0.272\nsamples = 80\nvalue = [13, 67]"] ;
56 -> 57 ;
58 [label="gini = 0.5\nsamples = 76\nvalue = [38, 38]"] ;
56 -> 58 ;
59 [label="X[738] <= -0.326\ngini = 0.211\nsamples = 508\nvalue = [61, 447]"] ;
55 -> 59 ;
60 [label="gini = 0.419\nsamples = 77\nvalue = [23, 54]"] ;
59 -> 60 ;
61 [label="X[1058] <= -0.13\ngini = 0.161\nsamples = 431\nvalue = [38, 393]"] ;
59 -> 61 ;
62 [label="X[954] <= -0.512\ngini = 0.092\nsamples = 330\nvalue = [16, 314]"] ;
61 -> 62 ;
63 [label="gini = 0.282\nsamples = 59\nvalue = [10, 49]"] ;
62 -> 63 ;
64 [label="X[1539] <= -0.317\ngini = 0.043\nsamples = 271\nvalue = [6, 265]"] ;
62 -> 64 ;
65 [label="gini = 0.168\nsamples = 65\nvalue = [6, 59]"] ;
64 -> 65 ;
66 [label="gini = 0.0\nsamples = 206\nvalue = [0, 206]"] ;
64 -> 66 ;
67 [label="X[883] <= -0.181\ngini = 0.341\nsamples = 101\nvalue = [22, 79]"] ;
61 -> 67 ;
68 [label="gini = 0.461\nsamples = 50\nvalue = [18, 32]"] ;
67 -> 68 ;
69 [label="gini = 0.145\nsamples = 51\nvalue = [4, 47]"] ;
67 -> 69 ;
70 [label="X[682] <= -0.123\ngini = 0.395\nsamples = 998\nvalue = [270, 728]"] ;
34 -> 70 ;
71 [label="X[1721] <= 0.056\ngini = 0.3\nsamples = 627\nvalue = [115, 512]"] ;
70 -> 71 ;
72 [label="X[1292] <= 0.148\ngini = 0.244\nsamples = 548\nvalue = [78, 470]"] ;
71 -> 72 ;
73 [label="X[62] <= -0.249\ngini = 0.327\nsamples = 360\nvalue = [74, 286]"] ;
72 -> 73 ;
74 [label="X[334] <= 0.123\ngini = 0.193\nsamples = 222\nvalue = [24, 198]"] ;
73 -> 74 ;
75 [label="X[1894] <= -0.162\ngini = 0.092\nsamples = 165\nvalue = [8, 157]"] ;
74 -> 75 ;
76 [label="gini = 0.0\nsamples = 105\nvalue = [0, 105]"] ;
75 -> 76 ;
77 [label="gini = 0.231\nsamples = 60\nvalue = [8, 52]"] ;
75 -> 77 ;
78 [label="gini = 0.404\nsamples = 57\nvalue = [16, 41]"] ;
74 -> 78 ;
79 [label="X[327] <= -0.216\ngini = 0.462\nsamples = 138\nvalue = [50, 88]"] ;
73 -> 79 ;
80 [label="gini = 0.47\nsamples = 53\nvalue = [33, 20]"] ;
79 -> 80 ;
81 [label="gini = 0.32\nsamples = 85\nvalue = [17, 68]"] ;
79 -> 81 ;
82 [label="X[2030] <= -0.021\ngini = 0.042\nsamples = 188\nvalue = [4, 184]"] ;
72 -> 82 ;
83 [label="gini = 0.0\nsamples = 138\nvalue = [0, 138]"] ;
82 -> 83 ;
84 [label="gini = 0.147\nsamples = 50\nvalue = [4, 46]"] ;
82 -> 84 ;
85 [label="gini = 0.498\nsamples = 79\nvalue = [37, 42]"] ;
71 -> 85 ;
86 [label="X[1318] <= -0.329\ngini = 0.486\nsamples = 371\nvalue = [155, 216]"] ;
70 -> 86 ;
87 [label="X[2277] <= -0.044\ngini = 0.282\nsamples = 106\nvalue = [18, 88]"] ;
86 -> 87 ;
88 [label="gini = 0.44\nsamples = 52\nvalue = [17, 35]"] ;
87 -> 88 ;
89 [label="gini = 0.036\nsamples = 54\nvalue = [1, 53]"] ;
87 -> 89 ;
90 [label="X[1292] <= 0.125\ngini = 0.499\nsamples = 265\nvalue = [137, 128]"] ;
86 -> 90 ;
91 [label="X[2314] <= -0.014\ngini = 0.455\nsamples = 160\nvalue = [104, 56]"] ;
90 -> 91 ;
92 [label="gini = 0.497\nsamples = 84\nvalue = [39, 45]"] ;
91 -> 92 ;
93 [label="gini = 0.248\nsamples = 76\nvalue = [65, 11]"] ;
91 -> 93 ;
94 [label="X[761] <= 0.028\ngini = 0.431\nsamples = 105\nvalue = [33, 72]"] ;
90 -> 94 ;
95 [label="gini = 0.5\nsamples = 54\nvalue = [27, 27]"] ;
94 -> 95 ;
96 [label="gini = 0.208\nsamples = 51\nvalue = [6, 45]"] ;
94 -> 96 ;
97 [label="X[1292] <= -0.07\ngini = 0.499\nsamples = 5306\nvalue = [2510, 2796]"] ;
3 -> 97 ;
98 [label="X[1991] <= -0.172\ngini = 0.454\nsamples = 2278\nvalue = [1483, 795]"] ;
97 -> 98 ;
99 [label="X[2232] <= -0.259\ngini = 0.498\nsamples = 799\nvalue = [373, 426]"] ;
98 -> 99 ;
100 [label="X[1732] <= -0.094\ngini = 0.479\nsamples = 413\nvalue = [249, 164]"] ;
99 -> 100 ;
101 [label="X[334] <= 0.238\ngini = 0.499\nsamples = 253\nvalue = [121, 132]"] ;
100 -> 101 ;
102 [label="X[617] <= -0.171\ngini = 0.463\nsamples = 179\nvalue = [65, 114]"] ;
101 -> 102 ;
103 [label="gini = 0.477\nsamples = 51\nvalue = [31, 20]"] ;
102 -> 103 ;
104 [label="X[2328] <= -0.001\ngini = 0.39\nsamples = 128\nvalue = [34, 94]"] ;
102 -> 104 ;
105 [label="gini = 0.204\nsamples = 78\nvalue = [9, 69]"] ;
104 -> 105 ;
106 [label="gini = 0.5\nsamples = 50\nvalue = [25, 25]"] ;
104 -> 106 ;
107 [label="gini = 0.368\nsamples = 74\nvalue = [56, 18]"] ;
101 -> 107 ;
108 [label="X[1201] <= -0.267\ngini = 0.32\nsamples = 160\nvalue = [128, 32]"] ;
100 -> 108 ;
109 [label="gini = 0.486\nsamples = 53\nvalue = [31, 22]"] ;
108 -> 109 ;
110 [label="X[1820] <= -0.102\ngini = 0.169\nsamples = 107\nvalue = [97, 10]"] ;
108 -> 110 ;
111 [label="gini = 0.0\nsamples = 57\nvalue = [57, 0]"] ;
110 -> 111 ;
112 [label="gini = 0.32\nsamples = 50\nvalue = [40, 10]"] ;
110 -> 112 ;
113 [label="X[2170] <= -0.221\ngini = 0.436\nsamples = 386\nvalue = [124, 262]"] ;
99 -> 113 ;
114 [label="X[847] <= -0.156\ngini = 0.245\nsamples = 161\nvalue = [23, 138]"] ;
113 -> 114 ;
115 [label="gini = 0.44\nsamples = 52\nvalue = [17, 35]"] ;
114 -> 115 ;
116 [label="X[2062] <= -0.13\ngini = 0.104\nsamples = 109\nvalue = [6, 103]"] ;
114 -> 116 ;
117 [label="gini = 0.0\nsamples = 59\nvalue = [0, 59]"] ;
116 -> 117 ;
118 [label="gini = 0.211\nsamples = 50\nvalue = [6, 44]"] ;
116 -> 118 ;
119 [label="X[1175] <= -0.335\ngini = 0.495\nsamples = 225\nvalue = [101, 124]"] ;
113 -> 119 ;
120 [label="gini = 0.421\nsamples = 73\nvalue = [51, 22]"] ;
119 -> 120 ;
121 [label="X[257] <= -0.104\ngini = 0.441\nsamples = 152\nvalue = [50, 102]"] ;
119 -> 121 ;
122 [label="gini = 0.273\nsamples = 86\nvalue = [14, 72]"] ;
121 -> 122 ;
123 [label="gini = 0.496\nsamples = 66\nvalue = [36, 30]"] ;
121 -> 123 ;
124 [label="X[1732] <= -0.348\ngini = 0.374\nsamples = 1479\nvalue = [1110, 369]"] ;
98 -> 124 ;
125 [label="X[1056] <= -0.26\ngini = 0.5\nsamples = 206\nvalue = [103, 103]"] ;
124 -> 125 ;
126 [label="gini = 0.351\nsamples = 75\nvalue = [58, 17]"] ;
125 -> 126 ;
127 [label="X[1494] <= -0.186\ngini = 0.451\nsamples = 131\nvalue = [45, 86]"] ;
125 -> 127 ;
128 [label="gini = 0.487\nsamples = 50\nvalue = [29, 21]"] ;
127 -> 128 ;
129 [label="gini = 0.317\nsamples = 81\nvalue = [16, 65]"] ;
127 -> 129 ;
130 [label="X[859] <= -0.312\ngini = 0.331\nsamples = 1273\nvalue = [1007, 266]"] ;
124 -> 130 ;
131 [label="X[1115] <= 0.006\ngini = 0.187\nsamples = 538\nvalue = [482, 56]"] ;
130 -> 131 ;
132 [label="X[1853] <= -0.442\ngini = 0.103\nsamples = 368\nvalue = [348, 20]"] ;
131 -> 132 ;
133 [label="gini = 0.32\nsamples = 50\nvalue = [40, 10]"] ;
132 -> 133 ;
134 [label="X[196] <= 0.355\ngini = 0.061\nsamples = 318\nvalue = [308, 10]"] ;
132 -> 134 ;
135 [label="X[671] <= -0.16\ngini = 0.022\nsamples = 268\nvalue = [265, 3]"] ;
134 -> 135 ;
136 [label="gini = 0.113\nsamples = 50\nvalue = [47, 3]"] ;
135 -> 136 ;
137 [label="gini = 0.0\nsamples = 218\nvalue = [218, 0]"] ;
135 -> 137 ;
138 [label="gini = 0.241\nsamples = 50\nvalue = [43, 7]"] ;
134 -> 138 ;
139 [label="X[574] <= -0.218\ngini = 0.334\nsamples = 170\nvalue = [134, 36]"] ;
131 -> 139 ;
140 [label="X[1557] <= -0.159\ngini = 0.187\nsamples = 115\nvalue = [103, 12]"] ;
139 -> 140 ;
141 [label="gini = 0.343\nsamples = 50\nvalue = [39, 11]"] ;
140 -> 141 ;
142 [label="gini = 0.03\nsamples = 65\nvalue = [64, 1]"] ;
140 -> 142 ;
143 [label="gini = 0.492\nsamples = 55\nvalue = [31, 24]"] ;
139 -> 143 ;
144 [label="X[147] <= 0.224\ngini = 0.408\nsamples = 735\nvalue = [525, 210]"] ;
130 -> 144 ;
145 [label="X[1056] <= 0.132\ngini = 0.343\nsamples = 551\nvalue = [430, 121]"] ;
144 -> 145 ;
146 [label="X[1175] <= -0.157\ngini = 0.277\nsamples = 422\nvalue = [352, 70]"] ;
145 -> 146 ;
147 [label="X[1504] <= -0.396\ngini = 0.189\nsamples = 312\nvalue = [279, 33]"] ;
146 -> 147 ;
148 [label="gini = 0.449\nsamples = 50\nvalue = [33, 17]"] ;
147 -> 148 ;
149 [label="X[1931] <= -0.188\ngini = 0.115\nsamples = 262\nvalue = [246, 16]"] ;
147 -> 149 ;
150 [label="gini = 0.281\nsamples = 71\nvalue = [59, 12]"] ;
149 -> 150 ;
151 [label="X[1068] <= -0.407\ngini = 0.041\nsamples = 191\nvalue = [187, 4]"] ;
149 -> 151 ;
152 [label="gini = 0.147\nsamples = 50\nvalue = [46, 4]"] ;
151 -> 152 ;
153 [label="gini = 0.0\nsamples = 141\nvalue = [141, 0]"] ;
151 -> 153 ;
154 [label="X[862] <= 0.023\ngini = 0.446\nsamples = 110\nvalue = [73, 37]"] ;
146 -> 154 ;
155 [label="gini = 0.222\nsamples = 55\nvalue = [48, 7]"] ;
154 -> 155 ;
156 [label="gini = 0.496\nsamples = 55\nvalue = [25, 30]"] ;
154 -> 156 ;
157 [label="X[850] <= -0.132\ngini = 0.478\nsamples = 129\nvalue = [78, 51]"] ;
145 -> 157 ;
158 [label="gini = 0.497\nsamples = 78\nvalue = [36, 42]"] ;
157 -> 158 ;
159 [label="gini = 0.291\nsamples = 51\nvalue = [42, 9]"] ;
157 -> 159 ;
160 [label="X[626] <= -0.067\ngini = 0.499\nsamples = 184\nvalue = [95, 89]"] ;
144 -> 160 ;
161 [label="gini = 0.435\nsamples = 75\nvalue = [24, 51]"] ;
160 -> 161 ;
162 [label="X[823] <= 0.109\ngini = 0.454\nsamples = 109\nvalue = [71, 38]"] ;
160 -> 162 ;
163 [label="gini = 0.499\nsamples = 52\nvalue = [25, 27]"] ;
162 -> 163 ;
164 [label="gini = 0.311\nsamples = 57\nvalue = [46, 11]"] ;
162 -> 164 ;
165 [label="X[1732] <= -0.171\ngini = 0.448\nsamples = 3028\nvalue = [1027, 2001]"] ;
97 -> 165 ;
166 [label="X[1494] <= -0.123\ngini = 0.331\nsamples = 1305\nvalue = [273, 1032]"] ;
165 -> 166 ;
167 [label="X[1022] <= 0.033\ngini = 0.442\nsamples = 506\nvalue = [167, 339]"] ;
166 -> 167 ;
168 [label="X[1436] <= -0.112\ngini = 0.315\nsamples = 281\nvalue = [55, 226]"] ;
167 -> 168 ;
169 [label="X[1498] <= -0.166\ngini = 0.108\nsamples = 140\nvalue = [8, 132]"] ;
168 -> 169 ;
170 [label="gini = 0.252\nsamples = 54\nvalue = [8, 46]"] ;
169 -> 170 ;
171 [label="gini = 0.0\nsamples = 86\nvalue = [0, 86]"] ;
169 -> 171 ;
172 [label="X[1403] <= -0.115\ngini = 0.444\nsamples = 141\nvalue = [47, 94]"] ;
168 -> 172 ;
173 [label="gini = 0.483\nsamples = 54\nvalue = [32, 22]"] ;
172 -> 173 ;
174 [label="gini = 0.285\nsamples = 87\nvalue = [15, 72]"] ;
172 -> 174 ;
175 [label="X[1797] <= 0.119\ngini = 0.5\nsamples = 225\nvalue = [112, 113]"] ;
167 -> 175 ;
176 [label="gini = 0.38\nsamples = 90\nvalue = [67, 23]"] ;
175 -> 176 ;
177 [label="X[950] <= -0.077\ngini = 0.444\nsamples = 135\nvalue = [45, 90]"] ;
175 -> 177 ;
178 [label="gini = 0.293\nsamples = 73\nvalue = [13, 60]"] ;
177 -> 178 ;
179 [label="gini = 0.499\nsamples = 62\nvalue = [32, 30]"] ;
177 -> 179 ;
180 [label="X[234] <= -0.427\ngini = 0.23\nsamples = 799\nvalue = [106, 693]"] ;
166 -> 180 ;
181 [label="gini = 0.455\nsamples = 97\nvalue = [34, 63]"] ;
180 -> 181 ;
182 [label="X[1613] <= -0.098\ngini = 0.184\nsamples = 702\nvalue = [72, 630]"] ;
180 -> 182 ;
183 [label="X[1022] <= 0.048\ngini = 0.108\nsamples = 506\nvalue = [29, 477]"] ;
182 -> 183 ;
184 [label="X[656] <= -0.258\ngini = 0.033\nsamples = 299\nvalue = [5, 294]"] ;
183 -> 184 ;
185 [label="gini = 0.18\nsamples = 50\nvalue = [5, 45]"] ;
184 -> 185 ;
186 [label="gini = 0.0\nsamples = 249\nvalue = [0, 249]"] ;
184 -> 186 ;
187 [label="X[885] <= -0.311\ngini = 0.205\nsamples = 207\nvalue = [24, 183]"] ;
183 -> 187 ;
188 [label="X[368] <= -0.073\ngini = 0.065\nsamples = 118\nvalue = [4, 114]"] ;
187 -> 188 ;
189 [label="gini = 0.0\nsamples = 68\nvalue = [0, 68]"] ;
188 -> 189 ;
190 [label="gini = 0.147\nsamples = 50\nvalue = [4, 46]"] ;
188 -> 190 ;
191 [label="gini = 0.348\nsamples = 89\nvalue = [20, 69]"] ;
187 -> 191 ;
192 [label="X[554] <= -0.013\ngini = 0.343\nsamples = 196\nvalue = [43, 153]"] ;
182 -> 192 ;
193 [label="gini = 0.496\nsamples = 66\nvalue = [30, 36]"] ;
192 -> 193 ;
194 [label="X[1079] <= -0.098\ngini = 0.18\nsamples = 130\nvalue = [13, 117]"] ;
192 -> 194 ;
195 [label="gini = 0.027\nsamples = 73\nvalue = [1, 72]"] ;
194 -> 195 ;
196 [label="gini = 0.332\nsamples = 57\nvalue = [12, 45]"] ;
194 -> 196 ;
197 [label="X[1991] <= -0.085\ngini = 0.492\nsamples = 1723\nvalue = [754, 969]"] ;
165 -> 197 ;
198 [label="X[1172] <= -0.16\ngini = 0.404\nsamples = 718\nvalue = [202, 516]"] ;
197 -> 198 ;
199 [label="X[266] <= 0.019\ngini = 0.48\nsamples = 340\nvalue = [136, 204]"] ;
198 -> 199 ;
200 [label="X[1435] <= -0.031\ngini = 0.414\nsamples = 232\nvalue = [68, 164]"] ;
199 -> 200 ;
201 [label="X[827] <= -0.261\ngini = 0.261\nsamples = 136\nvalue = [21, 115]"] ;
200 -> 201 ;
202 [label="gini = 0.429\nsamples = 61\nvalue = [19, 42]"] ;
201 -> 202 ;
203 [label="gini = 0.052\nsamples = 75\nvalue = [2, 73]"] ;
201 -> 203 ;
204 [label="gini = 0.5\nsamples = 96\nvalue = [47, 49]"] ;
200 -> 204 ;
205 [label="X[1142] <= 0.101\ngini = 0.466\nsamples = 108\nvalue = [68, 40]"] ;
199 -> 205 ;
206 [label="gini = 0.27\nsamples = 56\nvalue = [47, 9]"] ;
205 -> 206 ;
207 [label="gini = 0.482\nsamples = 52\nvalue = [21, 31]"] ;
205 -> 207 ;
208 [label="X[2069] <= 0.181\ngini = 0.288\nsamples = 378\nvalue = [66, 312]"] ;
198 -> 208 ;
209 [label="X[728] <= -0.009\ngini = 0.189\nsamples = 275\nvalue = [29, 246]"] ;
208 -> 209 ;
210 [label="X[520] <= -0.009\ngini = 0.33\nsamples = 120\nvalue = [25, 95]"] ;
209 -> 210 ;
211 [label="gini = 0.434\nsamples = 69\nvalue = [22, 47]"] ;
210 -> 211 ;
212 [label="gini = 0.111\nsamples = 51\nvalue = [3, 48]"] ;
210 -> 212 ;
213 [label="X[1671] <= 0.094\ngini = 0.05\nsamples = 155\nvalue = [4, 151]"] ;
209 -> 213 ;
214 [label="gini = 0.0\nsamples = 105\nvalue = [0, 105]"] ;
213 -> 214 ;
215 [label="gini = 0.147\nsamples = 50\nvalue = [4, 46]"] ;
213 -> 215 ;
216 [label="X[1346] <= -0.101\ngini = 0.46\nsamples = 103\nvalue = [37, 66]"] ;
208 -> 216 ;
217 [label="gini = 0.478\nsamples = 53\nvalue = [32, 21]"] ;
216 -> 217 ;
218 [label="gini = 0.18\nsamples = 50\nvalue = [5, 45]"] ;
216 -> 218 ;
219 [label="X[548] <= 0.049\ngini = 0.495\nsamples = 1005\nvalue = [552, 453]"] ;
197 -> 219 ;
220 [label="X[2140] <= -0.006\ngini = 0.455\nsamples = 586\nvalue = [381, 205]"] ;
219 -> 220 ;
221 [label="X[648] <= 0.042\ngini = 0.496\nsamples = 356\nvalue = [193, 163]"] ;
220 -> 221 ;
222 [label="X[1035] <= -0.034\ngini = 0.465\nsamples = 155\nvalue = [57, 98]"] ;
221 -> 222 ;
223 [label="gini = 0.5\nsamples = 95\nvalue = [48, 47]"] ;
222 -> 223 ;
224 [label="gini = 0.255\nsamples = 60\nvalue = [9, 51]"] ;
222 -> 224 ;
225 [label="X[2277] <= 0.151\ngini = 0.438\nsamples = 201\nvalue = [136, 65]"] ;
221 -> 225 ;
226 [label="X[1177] <= 0.154\ngini = 0.336\nsamples = 145\nvalue = [114, 31]"] ;
225 -> 226 ;
227 [label="gini = 0.172\nsamples = 95\nvalue = [86, 9]"] ;
226 -> 227 ;
228 [label="gini = 0.493\nsamples = 50\nvalue = [28, 22]"] ;
226 -> 228 ;
229 [label="gini = 0.477\nsamples = 56\nvalue = [22, 34]"] ;
225 -> 229 ;
230 [label="X[1292] <= 0.152\ngini = 0.299\nsamples = 230\nvalue = [188, 42]"] ;
220 -> 230 ;
231 [label="X[1082] <= -0.038\ngini = 0.15\nsamples = 135\nvalue = [124, 11]"] ;
230 -> 231 ;
232 [label="gini = 0.343\nsamples = 50\nvalue = [39, 11]"] ;
231 -> 232 ;
233 [label="gini = 0.0\nsamples = 85\nvalue = [85, 0]"] ;
231 -> 233 ;
234 [label="gini = 0.44\nsamples = 95\nvalue = [64, 31]"] ;
230 -> 234 ;
235 [label="X[1747] <= -0.082\ngini = 0.483\nsamples = 419\nvalue = [171, 248]"] ;
219 -> 235 ;
236 [label="X[1577] <= -0.166\ngini = 0.357\nsamples = 146\nvalue = [34, 112]"] ;
235 -> 236 ;
237 [label="gini = 0.49\nsamples = 63\nvalue = [27, 36]"] ;
236 -> 237 ;
238 [label="gini = 0.154\nsamples = 83\nvalue = [7, 76]"] ;
236 -> 238 ;
239 [label="X[1360] <= 0.115\ngini = 0.5\nsamples = 273\nvalue = [137, 136]"] ;
235 -> 239 ;
240 [label="X[456] <= -0.047\ngini = 0.46\nsamples = 148\nvalue = [95, 53]"] ;
239 -> 240 ;
241 [label="gini = 0.48\nsamples = 50\nvalue = [20, 30]"] ;
240 -> 241 ;
242 [label="gini = 0.359\nsamples = 98\nvalue = [75, 23]"] ;
240 -> 242 ;
243 [label="X[183] <= -0.022\ngini = 0.446\nsamples = 125\nvalue = [42, 83]"] ;
239 -> 243 ;
244 [label="gini = 0.497\nsamples = 50\nvalue = [27, 23]"] ;
243 -> 244 ;
245 [label="gini = 0.32\nsamples = 75\nvalue = [15, 60]"] ;
243 -> 245 ;
246 [label="X[1224] <= -0.172\ngini = 0.22\nsamples = 23208\nvalue = [2924, 20284]"] ;
2 -> 246 ;
247 [label="X[1292] <= -0.24\ngini = 0.133\nsamples = 14436\nvalue = [1032, 13404]"] ;
246 -> 247 ;
248 [label="X[2314] <= 0.013\ngini = 0.293\nsamples = 2720\nvalue = [485, 2235]"] ;
247 -> 248 ;
249 [label="X[1435] <= -0.071\ngini = 0.222\nsamples = 2196\nvalue = [280, 1916]"] ;
248 -> 249 ;
250 [label="X[1991] <= -0.033\ngini = 0.153\nsamples = 1602\nvalue = [134, 1468]"] ;
249 -> 250 ;
251 [label="X[682] <= -0.0\ngini = 0.104\nsamples = 1285\nvalue = [71, 1214]"] ;
250 -> 251 ;
252 [label="X[1318] <= 0.103\ngini = 0.08\nsamples = 1169\nvalue = [49, 1120]"] ;
251 -> 252 ;
253 [label="X[1292] <= -0.621\ngini = 0.063\nsamples = 1100\nvalue = [36, 1064]"] ;
252 -> 253 ;
254 [label="gini = 0.281\nsamples = 65\nvalue = [11, 54]"] ;
253 -> 254 ;
255 [label="X[486] <= -0.194\ngini = 0.047\nsamples = 1035\nvalue = [25, 1010]"] ;
253 -> 255 ;
256 [label="gini = 0.255\nsamples = 60\nvalue = [9, 51]"] ;
255 -> 256 ;
257 [label="X[1152] <= 0.11\ngini = 0.032\nsamples = 975\nvalue = [16, 959]"] ;
255 -> 257 ;
258 [label="X[1256] <= -0.42\ngini = 0.021\nsamples = 925\nvalue = [10, 915]"] ;
257 -> 258 ;
259 [label="gini = 0.18\nsamples = 50\nvalue = [5, 45]"] ;
258 -> 259 ;
260 [label="X[1861] <= -0.066\ngini = 0.011\nsamples = 875\nvalue = [5, 870]"] ;
258 -> 260 ;
261 [label="gini = 0.113\nsamples = 50\nvalue = [3, 47]"] ;
260 -> 261 ;
262 [label="X[2030] <= 0.267\ngini = 0.005\nsamples = 825\nvalue = [2, 823]"] ;
260 -> 262 ;
263 [label="gini = 0.0\nsamples = 775\nvalue = [0, 775]"] ;
262 -> 263 ;
264 [label="gini = 0.077\nsamples = 50\nvalue = [2, 48]"] ;
262 -> 264 ;
265 [label="gini = 0.211\nsamples = 50\nvalue = [6, 44]"] ;
257 -> 265 ;
266 [label="gini = 0.306\nsamples = 69\nvalue = [13, 56]"] ;
252 -> 266 ;
267 [label="X[1940] <= -0.404\ngini = 0.307\nsamples = 116\nvalue = [22, 94]"] ;
251 -> 267 ;
268 [label="gini = 0.0\nsamples = 51\nvalue = [0, 51]"] ;
267 -> 268 ;
269 [label="gini = 0.448\nsamples = 65\nvalue = [22, 43]"] ;
267 -> 269 ;
270 [label="X[1390] <= -0.199\ngini = 0.318\nsamples = 317\nvalue = [63, 254]"] ;
250 -> 270 ;
271 [label="gini = 0.478\nsamples = 86\nvalue = [34, 52]"] ;
270 -> 271 ;
272 [label="X[458] <= -0.384\ngini = 0.22\nsamples = 231\nvalue = [29, 202]"] ;
270 -> 272 ;
273 [label="gini = 0.399\nsamples = 69\nvalue = [19, 50]"] ;
272 -> 273 ;
274 [label="X[1895] <= -0.303\ngini = 0.116\nsamples = 162\nvalue = [10, 152]"] ;
272 -> 274 ;
275 [label="gini = 0.0\nsamples = 101\nvalue = [0, 101]"] ;
274 -> 275 ;
276 [label="gini = 0.274\nsamples = 61\nvalue = [10, 51]"] ;
274 -> 276 ;
277 [label="X[2296] <= 0.069\ngini = 0.371\nsamples = 594\nvalue = [146, 448]"] ;
249 -> 277 ;
278 [label="X[682] <= -0.025\ngini = 0.293\nsamples = 443\nvalue = [79, 364]"] ;
277 -> 278 ;
279 [label="X[114] <= -0.422\ngini = 0.22\nsamples = 358\nvalue = [45, 313]"] ;
278 -> 279 ;
280 [label="gini = 0.425\nsamples = 85\nvalue = [26, 59]"] ;
279 -> 280 ;
281 [label="X[862] <= -0.205\ngini = 0.13\nsamples = 273\nvalue = [19, 254]"] ;
279 -> 281 ;
282 [label="gini = 0.343\nsamples = 50\nvalue = [11, 39]"] ;
281 -> 282 ;
283 [label="X[1245] <= -0.009\ngini = 0.069\nsamples = 223\nvalue = [8, 215]"] ;
281 -> 283 ;
284 [label="gini = 0.0\nsamples = 173\nvalue = [0, 173]"] ;
283 -> 284 ;
285 [label="gini = 0.269\nsamples = 50\nvalue = [8, 42]"] ;
283 -> 285 ;
286 [label="gini = 0.48\nsamples = 85\nvalue = [34, 51]"] ;
278 -> 286 ;
287 [label="X[777] <= -0.065\ngini = 0.494\nsamples = 151\nvalue = [67, 84]"] ;
277 -> 287 ;
288 [label="gini = 0.48\nsamples = 90\nvalue = [54, 36]"] ;
287 -> 288 ;
289 [label="gini = 0.335\nsamples = 61\nvalue = [13, 48]"] ;
287 -> 289 ;
290 [label="X[1732] <= -0.228\ngini = 0.476\nsamples = 524\nvalue = [205, 319]"] ;
248 -> 290 ;
291 [label="X[1494] <= -0.309\ngini = 0.276\nsamples = 157\nvalue = [26, 131]"] ;
290 -> 291 ;
292 [label="gini = 0.461\nsamples = 50\nvalue = [18, 32]"] ;
291 -> 292 ;
293 [label="X[727] <= -0.132\ngini = 0.138\nsamples = 107\nvalue = [8, 99]"] ;
291 -> 293 ;
294 [label="gini = 0.0\nsamples = 57\nvalue = [0, 57]"] ;
293 -> 294 ;
295 [label="gini = 0.269\nsamples = 50\nvalue = [8, 42]"] ;
293 -> 295 ;
296 [label="X[1224] <= -0.35\ngini = 0.5\nsamples = 367\nvalue = [179, 188]"] ;
290 -> 296 ;
297 [label="X[1085] <= -0.063\ngini = 0.415\nsamples = 143\nvalue = [42, 101]"] ;
296 -> 297 ;
298 [label="gini = 0.499\nsamples = 67\nvalue = [32, 35]"] ;
297 -> 298 ;
299 [label="gini = 0.229\nsamples = 76\nvalue = [10, 66]"] ;
297 -> 299 ;
300 [label="X[1416] <= 0.087\ngini = 0.475\nsamples = 224\nvalue = [137, 87]"] ;
296 -> 300 ;
301 [label="X[881] <= 0.015\ngini = 0.39\nsamples = 147\nvalue = [108, 39]"] ;
300 -> 301 ;
302 [label="gini = 0.193\nsamples = 83\nvalue = [74, 9]"] ;
301 -> 302 ;
303 [label="gini = 0.498\nsamples = 64\nvalue = [34, 30]"] ;
301 -> 303 ;
304 [label="gini = 0.47\nsamples = 77\nvalue = [29, 48]"] ;
300 -> 304 ;
305 [label="X[1991] <= 0.038\ngini = 0.089\nsamples = 11716\nvalue = [547, 11169]"] ;
247 -> 305 ;
306 [label="X[682] <= 0.093\ngini = 0.054\nsamples = 9497\nvalue = [265, 9232]"] ;
305 -> 306 ;
307 [label="X[2272] <= -0.055\ngini = 0.041\nsamples = 8854\nvalue = [186, 8668]"] ;
306 -> 307 ;
308 [label="X[859] <= -0.446\ngini = 0.027\nsamples = 7268\nvalue = [99, 7169]"] ;
307 -> 308 ;
309 [label="X[426] <= -0.216\ngini = 0.207\nsamples = 111\nvalue = [13, 98]"] ;
308 -> 309 ;
310 [label="gini = 0.0\nsamples = 60\nvalue = [0, 60]"] ;
309 -> 310 ;
311 [label="gini = 0.38\nsamples = 51\nvalue = [13, 38]"] ;
309 -> 311 ;
312 [label="X[2097] <= -0.719\ngini = 0.024\nsamples = 7157\nvalue = [86, 7071]"] ;
308 -> 312 ;
313 [label="gini = 0.269\nsamples = 50\nvalue = [8, 42]"] ;
312 -> 313 ;
314 [label="X[590] <= -0.451\ngini = 0.022\nsamples = 7107\nvalue = [78, 7029]"] ;
312 -> 314 ;
315 [label="gini = 0.233\nsamples = 52\nvalue = [7, 45]"] ;
314 -> 315 ;
316 [label="X[1912] <= -0.471\ngini = 0.02\nsamples = 7055\nvalue = [71, 6984]"] ;
314 -> 316 ;
317 [label="X[415] <= -0.111\ngini = 0.119\nsamples = 237\nvalue = [15, 222]"] ;
316 -> 317 ;
318 [label="X[1808] <= -0.122\ngini = 0.043\nsamples = 182\nvalue = [4, 178]"] ;
317 -> 318 ;
319 [label="gini = 0.0\nsamples = 132\nvalue = [0, 132]"] ;
318 -> 319 ;
320 [label="gini = 0.147\nsamples = 50\nvalue = [4, 46]"] ;
318 -> 320 ;
321 [label="gini = 0.32\nsamples = 55\nvalue = [11, 44]"] ;
317 -> 321 ;
322 [label="X[684] <= -0.005\ngini = 0.016\nsamples = 6818\nvalue = [56, 6762]"] ;
316 -> 322 ;
323 [label="X[2170] <= 0.035\ngini = 0.042\nsamples = 1961\nvalue = [42, 1919]"] ;
322 -> 323 ;
324 [label="X[1115] <= -0.299\ngini = 0.022\nsamples = 1720\nvalue = [19, 1701]"] ;
323 -> 324 ;
325 [label="X[941] <= -0.167\ngini = 0.119\nsamples = 142\nvalue = [9, 133]"] ;
324 -> 325 ;
326 [label="gini = 0.0\nsamples = 89\nvalue = [0, 89]"] ;
325 -> 326 ;
327 [label="gini = 0.282\nsamples = 53\nvalue = [9, 44]"] ;
325 -> 327 ;
328 [label="X[1616] <= 0.143\ngini = 0.013\nsamples = 1578\nvalue = [10, 1568]"] ;
324 -> 328 ;
329 [label="X[1060] <= 0.316\ngini = 0.008\nsamples = 1528\nvalue = [6, 1522]"] ;
328 -> 329 ;
330 [label="X[1792] <= -0.494\ngini = 0.004\nsamples = 1478\nvalue = [3, 1475]"] ;
329 -> 330 ;
331 [label="gini = 0.109\nsamples = 52\nvalue = [3, 49]"] ;
330 -> 331 ;
332 [label="gini = 0.0\nsamples = 1426\nvalue = [0, 1426]"] ;
330 -> 332 ;
333 [label="gini = 0.113\nsamples = 50\nvalue = [3, 47]"] ;
329 -> 333 ;
334 [label="gini = 0.147\nsamples = 50\nvalue = [4, 46]"] ;
328 -> 334 ;
335 [label="X[1390] <= -0.297\ngini = 0.173\nsamples = 241\nvalue = [23, 218]"] ;
323 -> 335 ;
336 [label="gini = 0.4\nsamples = 58\nvalue = [16, 42]"] ;
335 -> 336 ;
337 [label="X[1747] <= 0.072\ngini = 0.074\nsamples = 183\nvalue = [7, 176]"] ;
335 -> 337 ;
338 [label="gini = 0.0\nsamples = 133\nvalue = [0, 133]"] ;
337 -> 338 ;
339 [label="gini = 0.241\nsamples = 50\nvalue = [7, 43]"] ;
337 -> 339 ;
340 [label="X[1616] <= 0.117\ngini = 0.006\nsamples = 4857\nvalue = [14, 4843]"] ;
322 -> 340 ;
341 [label="X[1721] <= 0.374\ngini = 0.001\nsamples = 4238\nvalue = [3, 4235]"] ;
340 -> 341 ;
342 [label="X[135] <= -0.246\ngini = 0.0\nsamples = 4188\nvalue = [1, 4187]"] ;
341 -> 342 ;
343 [label="gini = 0.039\nsamples = 50\nvalue = [1, 49]"] ;
342 -> 343 ;
344 [label="gini = 0.0\nsamples = 4138\nvalue = [0, 4138]"] ;
342 -> 344 ;
345 [label="gini = 0.077\nsamples = 50\nvalue = [2, 48]"] ;
341 -> 345 ;
346 [label="X[1522] <= -0.036\ngini = 0.035\nsamples = 619\nvalue = [11, 608]"] ;
340 -> 346 ;
347 [label="X[17] <= 0.532\ngini = 0.011\nsamples = 560\nvalue = [3, 557]"] ;
346 -> 347 ;
348 [label="gini = 0.0\nsamples = 510\nvalue = [0, 510]"] ;
347 -> 348 ;
349 [label="gini = 0.113\nsamples = 50\nvalue = [3, 47]"] ;
347 -> 349 ;
350 [label="gini = 0.234\nsamples = 59\nvalue = [8, 51]"] ;
346 -> 350 ;
351 [label="X[648] <= -0.117\ngini = 0.104\nsamples = 1586\nvalue = [87, 1499]"] ;
307 -> 351 ;
352 [label="X[2170] <= 0.239\ngini = 0.044\nsamples = 1059\nvalue = [24, 1035]"] ;
351 -> 352 ;
353 [label="X[1292] <= -0.168\ngini = 0.019\nsamples = 930\nvalue = [9, 921]"] ;
352 -> 353 ;
354 [label="gini = 0.126\nsamples = 89\nvalue = [6, 83]"] ;
353 -> 354 ;
355 [label="X[717] <= -0.409\ngini = 0.007\nsamples = 841\nvalue = [3, 838]"] ;
353 -> 355 ;
356 [label="gini = 0.091\nsamples = 63\nvalue = [3, 60]"] ;
355 -> 356 ;
357 [label="gini = 0.0\nsamples = 778\nvalue = [0, 778]"] ;
355 -> 357 ;
358 [label="X[1175] <= 0.101\ngini = 0.206\nsamples = 129\nvalue = [15, 114]"] ;
352 -> 358 ;
359 [label="gini = 0.398\nsamples = 51\nvalue = [14, 37]"] ;
358 -> 359 ;
360 [label="gini = 0.025\nsamples = 78\nvalue = [1, 77]"] ;
358 -> 360 ;
361 [label="X[993] <= -0.406\ngini = 0.211\nsamples = 527\nvalue = [63, 464]"] ;
351 -> 361 ;
362 [label="gini = 0.464\nsamples = 63\nvalue = [23, 40]"] ;
361 -> 362 ;
363 [label="X[1115] <= -0.175\ngini = 0.158\nsamples = 464\nvalue = [40, 424]"] ;
361 -> 363 ;
364 [label="gini = 0.416\nsamples = 61\nvalue = [18, 43]"] ;
363 -> 364 ;
365 [label="X[643] <= 0.068\ngini = 0.103\nsamples = 403\nvalue = [22, 381]"] ;
363 -> 365 ;
366 [label="X[253] <= -0.083\ngini = 0.06\nsamples = 353\nvalue = [11, 342]"] ;
365 -> 366 ;
367 [label="gini = 0.209\nsamples = 76\nvalue = [9, 67]"] ;
366 -> 367 ;
368 [label="X[1350] <= -0.123\ngini = 0.014\nsamples = 277\nvalue = [2, 275]"] ;
366 -> 368 ;
369 [label="gini = 0.077\nsamples = 50\nvalue = [2, 48]"] ;
368 -> 369 ;
370 [label="gini = 0.0\nsamples = 227\nvalue = [0, 227]"] ;
368 -> 370 ;
371 [label="gini = 0.343\nsamples = 50\nvalue = [11, 39]"] ;
365 -> 371 ;
372 [label="X[2316] <= -0.025\ngini = 0.216\nsamples = 643\nvalue = [79, 564]"] ;
306 -> 372 ;
373 [label="X[1403] <= -0.145\ngini = 0.13\nsamples = 445\nvalue = [31, 414]"] ;
372 -> 373 ;
374 [label="gini = 0.359\nsamples = 64\nvalue = [15, 49]"] ;
373 -> 374 ;
375 [label="X[1991] <= -0.065\ngini = 0.08\nsamples = 381\nvalue = [16, 365]"] ;
373 -> 375 ;
376 [label="X[1559] <= 0.076\ngini = 0.038\nsamples = 312\nvalue = [6, 306]"] ;
375 -> 376 ;
377 [label="X[814] <= -0.039\ngini = 0.008\nsamples = 262\nvalue = [1, 261]"] ;
376 -> 377 ;
378 [label="gini = 0.0\nsamples = 212\nvalue = [0, 212]"] ;
377 -> 378 ;
379 [label="gini = 0.039\nsamples = 50\nvalue = [1, 49]"] ;
377 -> 379 ;
380 [label="gini = 0.18\nsamples = 50\nvalue = [5, 45]"] ;
376 -> 380 ;
381 [label="gini = 0.248\nsamples = 69\nvalue = [10, 59]"] ;
375 -> 381 ;
382 [label="X[185] <= -0.23\ngini = 0.367\nsamples = 198\nvalue = [48, 150]"] ;
372 -> 382 ;
383 [label="gini = 0.499\nsamples = 58\nvalue = [28, 30]"] ;
382 -> 383 ;
384 [label="X[2105] <= -0.232\ngini = 0.245\nsamples = 140\nvalue = [20, 120]"] ;
382 -> 384 ;
385 [label="gini = 0.054\nsamples = 72\nvalue = [2, 70]"] ;
384 -> 385 ;
386 [label="gini = 0.389\nsamples = 68\nvalue = [18, 50]"] ;
384 -> 386 ;
387 [label="X[27] <= -0.04\ngini = 0.222\nsamples = 2219\nvalue = [282, 1937]"] ;
305 -> 387 ;
388 [label="X[548] <= -0.385\ngini = 0.147\nsamples = 1590\nvalue = [127, 1463]"] ;
387 -> 388 ;
389 [label="X[2328] <= -0.131\ngini = 0.375\nsamples = 152\nvalue = [38, 114]"] ;
388 -> 389 ;
390 [label="X[198] <= 0.108\ngini = 0.192\nsamples = 102\nvalue = [11, 91]"] ;
389 -> 390 ;
391 [label="gini = 0.343\nsamples = 50\nvalue = [11, 39]"] ;
390 -> 391 ;
392 [label="gini = 0.0\nsamples = 52\nvalue = [0, 52]"] ;
390 -> 392 ;
393 [label="gini = 0.497\nsamples = 50\nvalue = [27, 23]"] ;
389 -> 393 ;
394 [label="X[2282] <= 0.202\ngini = 0.116\nsamples = 1438\nvalue = [89, 1349]"] ;
388 -> 394 ;
395 [label="X[1292] <= -0.022\ngini = 0.09\nsamples = 1310\nvalue = [62, 1248]"] ;
394 -> 395 ;
396 [label="X[1861] <= 0.027\ngini = 0.185\nsamples = 379\nvalue = [39, 340]"] ;
395 -> 396 ;
397 [label="gini = 0.394\nsamples = 74\nvalue = [20, 54]"] ;
396 -> 397 ;
398 [label="X[1895] <= -0.094\ngini = 0.117\nsamples = 305\nvalue = [19, 286]"] ;
396 -> 398 ;
399 [label="X[1927] <= 0.159\ngini = 0.034\nsamples = 228\nvalue = [4, 224]"] ;
398 -> 399 ;
400 [label="gini = 0.0\nsamples = 178\nvalue = [0, 178]"] ;
399 -> 400 ;
401 [label="gini = 0.147\nsamples = 50\nvalue = [4, 46]"] ;
399 -> 401 ;
402 [label="gini = 0.314\nsamples = 77\nvalue = [15, 62]"] ;
398 -> 402 ;
403 [label="X[1392] <= 0.31\ngini = 0.048\nsamples = 931\nvalue = [23, 908]"] ;
395 -> 403 ;
404 [label="X[1399] <= -0.424\ngini = 0.034\nsamples = 879\nvalue = [15, 864]"] ;
403 -> 404 ;
405 [label="gini = 0.19\nsamples = 66\nvalue = [7, 59]"] ;
404 -> 405 ;
406 [label="X[2140] <= 0.223\ngini = 0.019\nsamples = 813\nvalue = [8, 805]"] ;
404 -> 406 ;
407 [label="X[400] <= 0.226\ngini = 0.005\nsamples = 731\nvalue = [2, 729]"] ;
406 -> 407 ;
408 [label="gini = 0.0\nsamples = 681\nvalue = [0, 681]"] ;
407 -> 408 ;
409 [label="gini = 0.077\nsamples = 50\nvalue = [2, 48]"] ;
407 -> 409 ;
410 [label="gini = 0.136\nsamples = 82\nvalue = [6, 76]"] ;
406 -> 410 ;
411 [label="gini = 0.26\nsamples = 52\nvalue = [8, 44]"] ;
403 -> 411 ;
412 [label="X[1435] <= -0.252\ngini = 0.333\nsamples = 128\nvalue = [27, 101]"] ;
394 -> 412 ;
413 [label="gini = 0.095\nsamples = 60\nvalue = [3, 57]"] ;
412 -> 413 ;
414 [label="gini = 0.457\nsamples = 68\nvalue = [24, 44]"] ;
412 -> 414 ;
415 [label="X[1591] <= 0.001\ngini = 0.371\nsamples = 629\nvalue = [155, 474]"] ;
387 -> 415 ;
416 [label="X[2018] <= 0.206\ngini = 0.283\nsamples = 446\nvalue = [76, 370]"] ;
415 -> 416 ;
417 [label="X[2245] <= 0.2\ngini = 0.176\nsamples = 287\nvalue = [28, 259]"] ;
416 -> 417 ;
418 [label="X[1751] <= -0.117\ngini = 0.067\nsamples = 201\nvalue = [7, 194]"] ;
417 -> 418 ;
419 [label="gini = 0.0\nsamples = 149\nvalue = [0, 149]"] ;
418 -> 419 ;
420 [label="gini = 0.233\nsamples = 52\nvalue = [7, 45]"] ;
418 -> 420 ;
421 [label="gini = 0.369\nsamples = 86\nvalue = [21, 65]"] ;
417 -> 421 ;
422 [label="X[1056] <= -0.138\ngini = 0.422\nsamples = 159\nvalue = [48, 111]"] ;
416 -> 422 ;
423 [label="gini = 0.491\nsamples = 53\nvalue = [30, 23]"] ;
422 -> 423 ;
424 [label="X[1681] <= 0.027\ngini = 0.282\nsamples = 106\nvalue = [18, 88]"] ;
422 -> 424 ;
425 [label="gini = 0.435\nsamples = 50\nvalue = [16, 34]"] ;
424 -> 425 ;
426 [label="gini = 0.069\nsamples = 56\nvalue = [2, 54]"] ;
424 -> 426 ;
427 [label="X[1175] <= 0.132\ngini = 0.491\nsamples = 183\nvalue = [79, 104]"] ;
415 -> 427 ;
428 [label="X[853] <= -0.261\ngini = 0.484\nsamples = 119\nvalue = [70, 49]"] ;
427 -> 428 ;
429 [label="gini = 0.48\nsamples = 60\nvalue = [24, 36]"] ;
428 -> 429 ;
430 [label="gini = 0.344\nsamples = 59\nvalue = [46, 13]"] ;
428 -> 430 ;
431 [label="gini = 0.242\nsamples = 64\nvalue = [9, 55]"] ;
427 -> 431 ;
432 [label="X[1797] <= -0.031\ngini = 0.338\nsamples = 8772\nvalue = [1892, 6880]"] ;
246 -> 432 ;
433 [label="X[1747] <= -0.099\ngini = 0.457\nsamples = 3330\nvalue = [1175, 2155]"] ;
432 -> 433 ;
434 [label="X[1115] <= -0.03\ngini = 0.365\nsamples = 1725\nvalue = [414, 1311]"] ;
433 -> 434 ;
435 [label="X[1230] <= -0.022\ngini = 0.472\nsamples = 562\nvalue = [215, 347]"] ;
434 -> 435 ;
436 [label="X[1616] <= -0.024\ngini = 0.383\nsamples = 322\nvalue = [83, 239]"] ;
435 -> 436 ;
437 [label="X[1412] <= -0.323\ngini = 0.32\nsamples = 265\nvalue = [53, 212]"] ;
436 -> 437 ;
438 [label="gini = 0.474\nsamples = 83\nvalue = [32, 51]"] ;
437 -> 438 ;
439 [label="X[1687] <= -0.281\ngini = 0.204\nsamples = 182\nvalue = [21, 161]"] ;
437 -> 439 ;
440 [label="gini = 0.403\nsamples = 50\nvalue = [14, 36]"] ;
439 -> 440 ;
441 [label="X[475] <= -0.036\ngini = 0.1\nsamples = 132\nvalue = [7, 125]"] ;
439 -> 441 ;
442 [label="gini = 0.241\nsamples = 50\nvalue = [7, 43]"] ;
441 -> 442 ;
443 [label="gini = 0.0\nsamples = 82\nvalue = [0, 82]"] ;
441 -> 443 ;
444 [label="gini = 0.499\nsamples = 57\nvalue = [30, 27]"] ;
436 -> 444 ;
445 [label="X[1106] <= -0.107\ngini = 0.495\nsamples = 240\nvalue = [132, 108]"] ;
435 -> 445 ;
446 [label="gini = 0.313\nsamples = 67\nvalue = [54, 13]"] ;
445 -> 446 ;
447 [label="X[2162] <= -0.209\ngini = 0.495\nsamples = 173\nvalue = [78, 95]"] ;
445 -> 447 ;
448 [label="gini = 0.422\nsamples = 66\nvalue = [46, 20]"] ;
447 -> 448 ;
449 [label="X[602] <= 0.042\ngini = 0.419\nsamples = 107\nvalue = [32, 75]"] ;
447 -> 449 ;
450 [label="gini = 0.496\nsamples = 55\nvalue = [25, 30]"] ;
449 -> 450 ;
451 [label="gini = 0.233\nsamples = 52\nvalue = [7, 45]"] ;
449 -> 451 ;
452 [label="X[2314] <= 0.096\ngini = 0.284\nsamples = 1163\nvalue = [199, 964]"] ;
434 -> 452 ;
453 [label="X[2170] <= 0.075\ngini = 0.234\nsamples = 962\nvalue = [130, 832]"] ;
452 -> 453 ;
454 [label="X[978] <= -0.243\ngini = 0.189\nsamples = 832\nvalue = [88, 744]"] ;
453 -> 454 ;
455 [label="X[1227] <= -0.223\ngini = 0.342\nsamples = 238\nvalue = [52, 186]"] ;
454 -> 455 ;
456 [label="X[1741] <= -0.218\ngini = 0.16\nsamples = 137\nvalue = [12, 125]"] ;
455 -> 456 ;
457 [label="gini = 0.024\nsamples = 82\nvalue = [1, 81]"] ;
456 -> 457 ;
458 [label="gini = 0.32\nsamples = 55\nvalue = [11, 44]"] ;
456 -> 458 ;
459 [label="X[2296] <= -0.195\ngini = 0.478\nsamples = 101\nvalue = [40, 61]"] ;
455 -> 459 ;
460 [label="gini = 0.315\nsamples = 51\nvalue = [10, 41]"] ;
459 -> 460 ;
461 [label="gini = 0.48\nsamples = 50\nvalue = [30, 20]"] ;
459 -> 461 ;
462 [label="X[235] <= -0.008\ngini = 0.114\nsamples = 594\nvalue = [36, 558]"] ;
454 -> 462 ;
463 [label="X[1147] <= -0.385\ngini = 0.063\nsamples = 489\nvalue = [16, 473]"] ;
462 -> 463 ;
464 [label="gini = 0.269\nsamples = 50\nvalue = [8, 42]"] ;
463 -> 464 ;
465 [label="X[1617] <= -0.268\ngini = 0.036\nsamples = 439\nvalue = [8, 431]"] ;
463 -> 465 ;
466 [label="gini = 0.211\nsamples = 50\nvalue = [6, 44]"] ;
465 -> 466 ;
467 [label="X[1207] <= -0.505\ngini = 0.01\nsamples = 389\nvalue = [2, 387]"] ;
465 -> 467 ;
468 [label="gini = 0.077\nsamples = 50\nvalue = [2, 48]"] ;
467 -> 468 ;
469 [label="gini = 0.0\nsamples = 339\nvalue = [0, 339]"] ;
467 -> 469 ;
470 [label="X[704] <= -0.009\ngini = 0.308\nsamples = 105\nvalue = [20, 85]"] ;
462 -> 470 ;
471 [label="gini = 0.461\nsamples = 50\nvalue = [18, 32]"] ;
470 -> 471 ;
472 [label="gini = 0.07\nsamples = 55\nvalue = [2, 53]"] ;
470 -> 472 ;
473 [label="X[1175] <= -0.236\ngini = 0.437\nsamples = 130\nvalue = [42, 88]"] ;
453 -> 473 ;
474 [label="gini = 0.497\nsamples = 52\nvalue = [28, 24]"] ;
473 -> 474 ;
475 [label="gini = 0.295\nsamples = 78\nvalue = [14, 64]"] ;
473 -> 475 ;
476 [label="X[2019] <= -0.137\ngini = 0.451\nsamples = 201\nvalue = [69, 132]"] ;
452 -> 476 ;
477 [label="gini = 0.283\nsamples = 88\nvalue = [15, 73]"] ;
476 -> 477 ;
478 [label="X[119] <= 0.131\ngini = 0.499\nsamples = 113\nvalue = [54, 59]"] ;
476 -> 478 ;
479 [label="gini = 0.436\nsamples = 53\nvalue = [36, 17]"] ;
478 -> 479 ;
480 [label="gini = 0.42\nsamples = 60\nvalue = [18, 42]"] ;
478 -> 480 ;
481 [label="X[1494] <= -0.07\ngini = 0.499\nsamples = 1605\nvalue = [761, 844]"] ;
433 -> 481 ;
482 [label="X[1732] <= -0.228\ngini = 0.46\nsamples = 621\nvalue = [398, 223]"] ;
481 -> 482 ;
483 [label="X[1803] <= -0.034\ngini = 0.491\nsamples = 192\nvalue = [83, 109]"] ;
482 -> 483 ;
484 [label="gini = 0.471\nsamples = 87\nvalue = [54, 33]"] ;
483 -> 484 ;
485 [label="X[135] <= -0.16\ngini = 0.4\nsamples = 105\nvalue = [29, 76]"] ;
483 -> 485 ;
486 [label="gini = 0.497\nsamples = 50\nvalue = [23, 27]"] ;
485 -> 486 ;
487 [label="gini = 0.194\nsamples = 55\nvalue = [6, 49]"] ;
485 -> 487 ;
488 [label="X[125] <= -0.224\ngini = 0.39\nsamples = 429\nvalue = [315, 114]"] ;
482 -> 488 ;
489 [label="X[741] <= -0.013\ngini = 0.137\nsamples = 135\nvalue = [125, 10]"] ;
488 -> 489 ;
490 [label="gini = 0.285\nsamples = 58\nvalue = [48, 10]"] ;
489 -> 490 ;
491 [label="gini = 0.0\nsamples = 77\nvalue = [77, 0]"] ;
489 -> 491 ;
492 [label="X[2170] <= -0.251\ngini = 0.457\nsamples = 294\nvalue = [190, 104]"] ;
488 -> 492 ;
493 [label="gini = 0.47\nsamples = 69\nvalue = [26, 43]"] ;
492 -> 493 ;
494 [label="X[1997] <= 0.039\ngini = 0.395\nsamples = 225\nvalue = [164, 61]"] ;
492 -> 494 ;
495 [label="X[1206] <= -0.072\ngini = 0.211\nsamples = 117\nvalue = [103, 14]"] ;
494 -> 495 ;
496 [label="gini = 0.058\nsamples = 67\nvalue = [65, 2]"] ;
495 -> 496 ;
497 [label="gini = 0.365\nsamples = 50\nvalue = [38, 12]"] ;
495 -> 497 ;
498 [label="X[1762] <= -0.007\ngini = 0.492\nsamples = 108\nvalue = [61, 47]"] ;
494 -> 498 ;
499 [label="gini = 0.346\nsamples = 54\nvalue = [42, 12]"] ;
498 -> 499 ;
500 [label="gini = 0.456\nsamples = 54\nvalue = [19, 35]"] ;
498 -> 500 ;
501 [label="X[550] <= 0.08\ngini = 0.466\nsamples = 984\nvalue = [363, 621]"] ;
481 -> 501 ;
502 [label="X[1953] <= 0.031\ngini = 0.5\nsamples = 440\nvalue = [225, 215]"] ;
501 -> 502 ;
503 [label="X[458] <= -0.315\ngini = 0.477\nsamples = 286\nvalue = [112, 174]"] ;
502 -> 503 ;
504 [label="gini = 0.441\nsamples = 67\nvalue = [45, 22]"] ;
503 -> 504 ;
505 [label="X[1416] <= -0.19\ngini = 0.425\nsamples = 219\nvalue = [67, 152]"] ;
503 -> 505 ;
506 [label="gini = 0.5\nsamples = 83\nvalue = [42, 41]"] ;
505 -> 506 ;
507 [label="X[327] <= -0.106\ngini = 0.3\nsamples = 136\nvalue = [25, 111]"] ;
505 -> 507 ;
508 [label="gini = 0.468\nsamples = 51\nvalue = [19, 32]"] ;
507 -> 508 ;
509 [label="gini = 0.131\nsamples = 85\nvalue = [6, 79]"] ;
507 -> 509 ;
510 [label="X[458] <= -0.198\ngini = 0.391\nsamples = 154\nvalue = [113, 41]"] ;
502 -> 510 ;
511 [label="gini = 0.14\nsamples = 66\nvalue = [61, 5]"] ;
510 -> 511 ;
512 [label="gini = 0.483\nsamples = 88\nvalue = [52, 36]"] ;
510 -> 512 ;
513 [label="X[1488] <= -0.042\ngini = 0.379\nsamples = 544\nvalue = [138, 406]"] ;
501 -> 513 ;
514 [label="X[682] <= -0.022\ngini = 0.2\nsamples = 231\nvalue = [26, 205]"] ;
513 -> 514 ;
515 [label="X[370] <= -0.208\ngini = 0.105\nsamples = 180\nvalue = [10, 170]"] ;
514 -> 515 ;
516 [label="gini = 0.295\nsamples = 50\nvalue = [9, 41]"] ;
515 -> 516 ;
517 [label="X[1861] <= 0.094\ngini = 0.015\nsamples = 130\nvalue = [1, 129]"] ;
515 -> 517 ;
518 [label="gini = 0.039\nsamples = 50\nvalue = [1, 49]"] ;
517 -> 518 ;
519 [label="gini = 0.0\nsamples = 80\nvalue = [0, 80]"] ;
517 -> 519 ;
520 [label="gini = 0.431\nsamples = 51\nvalue = [16, 35]"] ;
514 -> 520 ;
521 [label="X[949] <= -0.012\ngini = 0.46\nsamples = 313\nvalue = [112, 201]"] ;
513 -> 521 ;
522 [label="gini = 0.444\nsamples = 57\nvalue = [38, 19]"] ;
521 -> 522 ;
523 [label="X[1643] <= 0.035\ngini = 0.411\nsamples = 256\nvalue = [74, 182]"] ;
521 -> 523 ;
524 [label="X[710] <= -0.05\ngini = 0.201\nsamples = 106\nvalue = [12, 94]"] ;
523 -> 524 ;
525 [label="gini = 0.35\nsamples = 53\nvalue = [12, 41]"] ;
524 -> 525 ;
526 [label="gini = 0.0\nsamples = 53\nvalue = [0, 53]"] ;
524 -> 526 ;
527 [label="X[1803] <= 0.074\ngini = 0.485\nsamples = 150\nvalue = [62, 88]"] ;
523 -> 527 ;
528 [label="gini = 0.436\nsamples = 56\nvalue = [38, 18]"] ;
527 -> 528 ;
529 [label="gini = 0.38\nsamples = 94\nvalue = [24, 70]"] ;
527 -> 529 ;
530 [label="X[1732] <= -0.171\ngini = 0.229\nsamples = 5442\nvalue = [717, 4725]"] ;
432 -> 530 ;
531 [label="X[648] <= 0.115\ngini = 0.126\nsamples = 2967\nvalue = [200, 2767]"] ;
530 -> 531 ;
532 [label="X[266] <= 0.093\ngini = 0.087\nsamples = 2368\nvalue = [108, 2260]"] ;
531 -> 532 ;
533 [label="X[1960] <= -0.579\ngini = 0.055\nsamples = 1844\nvalue = [52, 1792]"] ;
532 -> 533 ;
534 [label="gini = 0.32\nsamples = 50\nvalue = [10, 40]"] ;
533 -> 534 ;
535 [label="X[2066] <= 0.308\ngini = 0.046\nsamples = 1794\nvalue = [42, 1752]"] ;
533 -> 535 ;
536 [label="X[1869] <= -0.543\ngini = 0.034\nsamples = 1711\nvalue = [30, 1681]"] ;
535 -> 536 ;
537 [label="gini = 0.256\nsamples = 53\nvalue = [8, 45]"] ;
536 -> 537 ;
538 [label="X[350] <= -0.523\ngini = 0.026\nsamples = 1658\nvalue = [22, 1636]"] ;
536 -> 538 ;
539 [label="gini = 0.158\nsamples = 81\nvalue = [7, 74]"] ;
538 -> 539 ;
540 [label="X[1175] <= -0.047\ngini = 0.019\nsamples = 1577\nvalue = [15, 1562]"] ;
538 -> 540 ;
541 [label="X[1591] <= 0.04\ngini = 0.087\nsamples = 220\nvalue = [10, 210]"] ;
540 -> 541 ;
542 [label="X[545] <= -0.036\ngini = 0.012\nsamples = 159\nvalue = [1, 158]"] ;
541 -> 542 ;
543 [label="gini = 0.0\nsamples = 109\nvalue = [0, 109]"] ;
542 -> 543 ;
544 [label="gini = 0.039\nsamples = 50\nvalue = [1, 49]"] ;
542 -> 544 ;
545 [label="gini = 0.252\nsamples = 61\nvalue = [9, 52]"] ;
541 -> 545 ;
546 [label="X[366] <= -0.525\ngini = 0.007\nsamples = 1357\nvalue = [5, 1352]"] ;
540 -> 546 ;
547 [label="gini = 0.113\nsamples = 50\nvalue = [3, 47]"] ;
546 -> 547 ;
548 [label="X[559] <= -0.582\ngini = 0.003\nsamples = 1307\nvalue = [2, 1305]"] ;
546 -> 548 ;
549 [label="gini = 0.077\nsamples = 50\nvalue = [2, 48]"] ;
548 -> 549 ;
550 [label="gini = 0.0\nsamples = 1257\nvalue = [0, 1257]"] ;
548 -> 550 ;
551 [label="gini = 0.247\nsamples = 83\nvalue = [12, 71]"] ;
535 -> 551 ;
552 [label="X[695] <= 0.012\ngini = 0.191\nsamples = 524\nvalue = [56, 468]"] ;
532 -> 552 ;
553 [label="X[1817] <= -0.099\ngini = 0.308\nsamples = 252\nvalue = [48, 204]"] ;
552 -> 553 ;
554 [label="gini = 0.48\nsamples = 70\nvalue = [28, 42]"] ;
553 -> 554 ;
555 [label="X[554] <= 0.08\ngini = 0.196\nsamples = 182\nvalue = [20, 162]"] ;
553 -> 555 ;
556 [label="gini = 0.343\nsamples = 82\nvalue = [18, 64]"] ;
555 -> 556 ;
557 [label="X[2213] <= -0.002\ngini = 0.039\nsamples = 100\nvalue = [2, 98]"] ;
555 -> 557 ;
558 [label="gini = 0.077\nsamples = 50\nvalue = [2, 48]"] ;
557 -> 558 ;
559 [label="gini = 0.0\nsamples = 50\nvalue = [0, 50]"] ;
557 -> 559 ;
560 [label="X[861] <= 0.321\ngini = 0.057\nsamples = 272\nvalue = [8, 264]"] ;
552 -> 560 ;
561 [label="gini = 0.0\nsamples = 211\nvalue = [0, 211]"] ;
560 -> 561 ;
562 [label="gini = 0.228\nsamples = 61\nvalue = [8, 53]"] ;
560 -> 562 ;
563 [label="X[266] <= -0.076\ngini = 0.26\nsamples = 599\nvalue = [92, 507]"] ;
531 -> 563 ;
564 [label="X[871] <= -0.217\ngini = 0.166\nsamples = 437\nvalue = [40, 397]"] ;
563 -> 564 ;
565 [label="gini = 0.436\nsamples = 56\nvalue = [18, 38]"] ;
564 -> 565 ;
566 [label="X[1494] <= -0.402\ngini = 0.109\nsamples = 381\nvalue = [22, 359]"] ;
564 -> 566 ;
567 [label="gini = 0.317\nsamples = 71\nvalue = [14, 57]"] ;
566 -> 567 ;
568 [label="X[1775] <= 0.012\ngini = 0.05\nsamples = 310\nvalue = [8, 302]"] ;
566 -> 568 ;
569 [label="X[511] <= -0.204\ngini = 0.015\nsamples = 260\nvalue = [2, 258]"] ;
568 -> 569 ;
570 [label="gini = 0.077\nsamples = 50\nvalue = [2, 48]"] ;
569 -> 570 ;
571 [label="gini = 0.0\nsamples = 210\nvalue = [0, 210]"] ;
569 -> 571 ;
572 [label="gini = 0.211\nsamples = 50\nvalue = [6, 44]"] ;
568 -> 572 ;
573 [label="X[656] <= -0.076\ngini = 0.436\nsamples = 162\nvalue = [52, 110]"] ;
563 -> 573 ;
574 [label="gini = 0.497\nsamples = 65\nvalue = [35, 30]"] ;
573 -> 574 ;
575 [label="gini = 0.289\nsamples = 97\nvalue = [17, 80]"] ;
573 -> 575 ;
576 [label="X[1494] <= -0.177\ngini = 0.331\nsamples = 2475\nvalue = [517, 1958]"] ;
530 -> 576 ;
577 [label="X[2031] <= 0.043\ngini = 0.462\nsamples = 747\nvalue = [270, 477]"] ;
576 -> 577 ;
578 [label="X[458] <= 0.119\ngini = 0.403\nsamples = 532\nvalue = [149, 383]"] ;
577 -> 578 ;
579 [label="X[2314] <= -0.025\ngini = 0.495\nsamples = 171\nvalue = [77, 94]"] ;
578 -> 579 ;
580 [label="X[460] <= 0.065\ngini = 0.38\nsamples = 102\nvalue = [26, 76]"] ;
579 -> 580 ;
581 [label="gini = 0.48\nsamples = 50\nvalue = [20, 30]"] ;
580 -> 581 ;
582 [label="gini = 0.204\nsamples = 52\nvalue = [6, 46]"] ;
580 -> 582 ;
583 [label="gini = 0.386\nsamples = 69\nvalue = [51, 18]"] ;
579 -> 583 ;
584 [label="X[773] <= -0.179\ngini = 0.319\nsamples = 361\nvalue = [72, 289]"] ;
578 -> 584 ;
585 [label="gini = 0.499\nsamples = 55\nvalue = [26, 29]"] ;
584 -> 585 ;
586 [label="X[656] <= -0.092\ngini = 0.255\nsamples = 306\nvalue = [46, 260]"] ;
584 -> 586 ;
587 [label="X[1435] <= -0.035\ngini = 0.408\nsamples = 119\nvalue = [34, 85]"] ;
586 -> 587 ;
588 [label="gini = 0.227\nsamples = 69\nvalue = [9, 60]"] ;
587 -> 588 ;
589 [label="gini = 0.5\nsamples = 50\nvalue = [25, 25]"] ;
587 -> 589 ;
590 [label="X[1785] <= -0.193\ngini = 0.12\nsamples = 187\nvalue = [12, 175]"] ;
586 -> 590 ;
591 [label="gini = 0.298\nsamples = 55\nvalue = [10, 45]"] ;
590 -> 591 ;
592 [label="X[1605] <= -0.109\ngini = 0.03\nsamples = 132\nvalue = [2, 130]"] ;
590 -> 592 ;
593 [label="gini = 0.077\nsamples = 50\nvalue = [2, 48]"] ;
592 -> 593 ;
594 [label="gini = 0.0\nsamples = 82\nvalue = [0, 82]"] ;
592 -> 594 ;
595 [label="X[114] <= 0.218\ngini = 0.492\nsamples = 215\nvalue = [121, 94]"] ;
577 -> 595 ;
596 [label="X[1178] <= -0.078\ngini = 0.393\nsamples = 119\nvalue = [87, 32]"] ;
595 -> 596 ;
597 [label="gini = 0.499\nsamples = 50\nvalue = [26, 24]"] ;
596 -> 597 ;
598 [label="gini = 0.205\nsamples = 69\nvalue = [61, 8]"] ;
596 -> 598 ;
599 [label="gini = 0.457\nsamples = 96\nvalue = [34, 62]"] ;
595 -> 599 ;
600 [label="X[859] <= 0.124\ngini = 0.245\nsamples = 1728\nvalue = [247, 1481]"] ;
576 -> 600 ;
601 [label="X[2316] <= -0.124\ngini = 0.347\nsamples = 828\nvalue = [185, 643]"] ;
600 -> 601 ;
602 [label="X[285] <= 0.064\ngini = 0.149\nsamples = 271\nvalue = [22, 249]"] ;
601 -> 602 ;
603 [label="X[390] <= -0.235\ngini = 0.07\nsamples = 221\nvalue = [8, 213]"] ;
602 -> 603 ;
604 [label="gini = 0.203\nsamples = 61\nvalue = [7, 54]"] ;
603 -> 604 ;
605 [label="X[1572] <= 0.035\ngini = 0.012\nsamples = 160\nvalue = [1, 159]"] ;
603 -> 605 ;
606 [label="gini = 0.0\nsamples = 110\nvalue = [0, 110]"] ;
605 -> 606 ;
607 [label="gini = 0.039\nsamples = 50\nvalue = [1, 49]"] ;
605 -> 607 ;
608 [label="gini = 0.403\nsamples = 50\nvalue = [14, 36]"] ;
602 -> 608 ;
609 [label="X[1480] <= -0.237\ngini = 0.414\nsamples = 557\nvalue = [163, 394]"] ;
601 -> 609 ;
610 [label="gini = 0.489\nsamples = 89\nvalue = [51, 38]"] ;
609 -> 610 ;
611 [label="X[2305] <= 0.015\ngini = 0.364\nsamples = 468\nvalue = [112, 356]"] ;
609 -> 611 ;
612 [label="X[1937] <= 0.254\ngini = 0.242\nsamples = 263\nvalue = [37, 226]"] ;
611 -> 612 ;
613 [label="X[695] <= -0.165\ngini = 0.157\nsamples = 210\nvalue = [18, 192]"] ;
612 -> 613 ;
614 [label="gini = 0.323\nsamples = 74\nvalue = [15, 59]"] ;
613 -> 614 ;
615 [label="X[871] <= -0.146\ngini = 0.043\nsamples = 136\nvalue = [3, 133]"] ;
613 -> 615 ;
616 [label="gini = 0.113\nsamples = 50\nvalue = [3, 47]"] ;
615 -> 616 ;
617 [label="gini = 0.0\nsamples = 86\nvalue = [0, 86]"] ;
615 -> 617 ;
618 [label="gini = 0.46\nsamples = 53\nvalue = [19, 34]"] ;
612 -> 618 ;
619 [label="X[590] <= 0.14\ngini = 0.464\nsamples = 205\nvalue = [75, 130]"] ;
611 -> 619 ;
620 [label="gini = 0.494\nsamples = 88\nvalue = [49, 39]"] ;
619 -> 620 ;
621 [label="X[213] <= 0.031\ngini = 0.346\nsamples = 117\nvalue = [26, 91]"] ;
619 -> 621 ;
622 [label="gini = 0.482\nsamples = 52\nvalue = [21, 31]"] ;
621 -> 622 ;
623 [label="gini = 0.142\nsamples = 65\nvalue = [5, 60]"] ;
621 -> 623 ;
624 [label="X[1232] <= 0.242\ngini = 0.128\nsamples = 900\nvalue = [62, 838]"] ;
600 -> 624 ;
625 [label="X[1135] <= -0.318\ngini = 0.081\nsamples = 758\nvalue = [32, 726]"] ;
624 -> 625 ;
626 [label="gini = 0.329\nsamples = 53\nvalue = [11, 42]"] ;
625 -> 626 ;
627 [label="X[2262] <= 0.172\ngini = 0.058\nsamples = 705\nvalue = [21, 684]"] ;
625 -> 627 ;
628 [label="X[1520] <= -0.29\ngini = 0.015\nsamples = 524\nvalue = [4, 520]"] ;
627 -> 628 ;
629 [label="gini = 0.116\nsamples = 65\nvalue = [4, 61]"] ;
628 -> 629 ;
630 [label="gini = 0.0\nsamples = 459\nvalue = [0, 459]"] ;
628 -> 630 ;
631 [label="X[1123] <= 0.241\ngini = 0.17\nsamples = 181\nvalue = [17, 164]"] ;
627 -> 631 ;
632 [label="X[603] <= -0.046\ngini = 0.046\nsamples = 126\nvalue = [3, 123]"] ;
631 -> 632 ;
633 [label="gini = 0.113\nsamples = 50\nvalue = [3, 47]"] ;
632 -> 633 ;
634 [label="gini = 0.0\nsamples = 76\nvalue = [0, 76]"] ;
632 -> 634 ;
635 [label="gini = 0.38\nsamples = 55\nvalue = [14, 41]"] ;
631 -> 635 ;
636 [label="X[1801] <= 0.149\ngini = 0.333\nsamples = 142\nvalue = [30, 112]"] ;
624 -> 636 ;
637 [label="gini = 0.177\nsamples = 92\nvalue = [9, 83]"] ;
636 -> 637 ;
638 [label="gini = 0.487\nsamples = 50\nvalue = [21, 29]"] ;
636 -> 638 ;
639 [label="X[1861] <= 0.002\ngini = 0.496\nsamples = 15990\nvalue = [8685, 7305]"] ;
1 -> 639 ;
640 [label="X[1224] <= -0.299\ngini = 0.438\nsamples = 8986\nvalue = [6074, 2912]"] ;
639 -> 640 ;
641 [label="X[1175] <= -0.106\ngini = 0.494\nsamples = 2237\nvalue = [999, 1238]"] ;
640 -> 641 ;
642 [label="X[1991] <= -0.251\ngini = 0.491\nsamples = 1349\nvalue = [763, 586]"] ;
641 -> 642 ;
643 [label="X[520] <= -0.015\ngini = 0.459\nsamples = 468\nvalue = [167, 301]"] ;
642 -> 643 ;
644 [label="X[2170] <= -0.092\ngini = 0.485\nsamples = 155\nvalue = [91, 64]"] ;
643 -> 644 ;
645 [label="gini = 0.451\nsamples = 70\nvalue = [24, 46]"] ;
644 -> 645 ;
646 [label="gini = 0.334\nsamples = 85\nvalue = [67, 18]"] ;
644 -> 646 ;
647 [label="X[2012] <= -0.136\ngini = 0.368\nsamples = 313\nvalue = [76, 237]"] ;
643 -> 647 ;
648 [label="X[1953] <= -0.15\ngini = 0.207\nsamples = 162\nvalue = [19, 143]"] ;
647 -> 648 ;
649 [label="gini = 0.045\nsamples = 87\nvalue = [2, 85]"] ;
648 -> 649 ;
650 [label="gini = 0.351\nsamples = 75\nvalue = [17, 58]"] ;
648 -> 650 ;
651 [label="X[862] <= 0.053\ngini = 0.47\nsamples = 151\nvalue = [57, 94]"] ;
647 -> 651 ;
652 [label="gini = 0.496\nsamples = 77\nvalue = [42, 35]"] ;
651 -> 652 ;
653 [label="gini = 0.323\nsamples = 74\nvalue = [15, 59]"] ;
651 -> 653 ;
654 [label="X[1224] <= -0.426\ngini = 0.438\nsamples = 881\nvalue = [596, 285]"] ;
642 -> 654 ;
655 [label="X[1175] <= -0.412\ngini = 0.499\nsamples = 351\nvalue = [183, 168]"] ;
654 -> 655 ;
656 [label="X[530] <= -0.106\ngini = 0.389\nsamples = 121\nvalue = [89, 32]"] ;
655 -> 656 ;
657 [label="gini = 0.499\nsamples = 50\nvalue = [26, 24]"] ;
656 -> 657 ;
658 [label="gini = 0.2\nsamples = 71\nvalue = [63, 8]"] ;
656 -> 658 ;
659 [label="X[2155] <= -0.245\ngini = 0.483\nsamples = 230\nvalue = [94, 136]"] ;
655 -> 659 ;
660 [label="X[1868] <= -0.229\ngini = 0.33\nsamples = 115\nvalue = [24, 91]"] ;
659 -> 660 ;
661 [label="gini = 0.098\nsamples = 58\nvalue = [3, 55]"] ;
660 -> 661 ;
662 [label="gini = 0.465\nsamples = 57\nvalue = [21, 36]"] ;
660 -> 662 ;
663 [label="X[567] <= -0.213\ngini = 0.476\nsamples = 115\nvalue = [70, 45]"] ;
659 -> 663 ;
664 [label="gini = 0.27\nsamples = 56\nvalue = [47, 9]"] ;
663 -> 664 ;
665 [label="gini = 0.476\nsamples = 59\nvalue = [23, 36]"] ;
663 -> 665 ;
666 [label="X[682] <= -0.088\ngini = 0.344\nsamples = 530\nvalue = [413, 117]"] ;
654 -> 666 ;
667 [label="X[458] <= -0.427\ngini = 0.474\nsamples = 161\nvalue = [99, 62]"] ;
666 -> 667 ;
668 [label="gini = 0.211\nsamples = 50\nvalue = [44, 6]"] ;
667 -> 668 ;
669 [label="X[1112] <= -0.27\ngini = 0.5\nsamples = 111\nvalue = [55, 56]"] ;
667 -> 669 ;
670 [label="gini = 0.441\nsamples = 61\nvalue = [20, 41]"] ;
669 -> 670 ;
671 [label="gini = 0.42\nsamples = 50\nvalue = [35, 15]"] ;
669 -> 671 ;
672 [label="X[773] <= 0.021\ngini = 0.254\nsamples = 369\nvalue = [314, 55]"] ;
666 -> 672 ;
673 [label="X[1541] <= -0.033\ngini = 0.198\nsamples = 315\nvalue = [280, 35]"] ;
672 -> 673 ;
674 [label="X[1646] <= -0.093\ngini = 0.127\nsamples = 249\nvalue = [232, 17]"] ;
673 -> 674 ;
675 [label="X[1357] <= -0.447\ngini = 0.068\nsamples = 199\nvalue = [192, 7]"] ;
674 -> 675 ;
676 [label="gini = 0.222\nsamples = 55\nvalue = [48, 7]"] ;
675 -> 676 ;
677 [label="gini = 0.0\nsamples = 144\nvalue = [144, 0]"] ;
675 -> 677 ;
678 [label="gini = 0.32\nsamples = 50\nvalue = [40, 10]"] ;
674 -> 678 ;
679 [label="gini = 0.397\nsamples = 66\nvalue = [48, 18]"] ;
673 -> 679 ;
680 [label="gini = 0.466\nsamples = 54\nvalue = [34, 20]"] ;
672 -> 680 ;
681 [label="X[1732] <= 0.428\ngini = 0.39\nsamples = 888\nvalue = [236, 652]"] ;
641 -> 681 ;
682 [label="X[530] <= 0.019\ngini = 0.329\nsamples = 757\nvalue = [157, 600]"] ;
681 -> 682 ;
683 [label="X[1747] <= 0.352\ngini = 0.247\nsamples = 554\nvalue = [80, 474]"] ;
682 -> 683 ;
684 [label="X[1115] <= -0.277\ngini = 0.167\nsamples = 434\nvalue = [40, 394]"] ;
683 -> 684 ;
685 [label="X[507] <= -0.118\ngini = 0.328\nsamples = 116\nvalue = [24, 92]"] ;
684 -> 685 ;
686 [label="gini = 0.444\nsamples = 66\nvalue = [22, 44]"] ;
685 -> 686 ;
687 [label="gini = 0.077\nsamples = 50\nvalue = [2, 48]"] ;
685 -> 687 ;
688 [label="X[2140] <= 0.181\ngini = 0.096\nsamples = 318\nvalue = [16, 302]"] ;
684 -> 688 ;
689 [label="X[86] <= -0.263\ngini = 0.038\nsamples = 255\nvalue = [5, 250]"] ;
688 -> 689 ;
690 [label="gini = 0.168\nsamples = 54\nvalue = [5, 49]"] ;
689 -> 690 ;
691 [label="gini = 0.0\nsamples = 201\nvalue = [0, 201]"] ;
689 -> 691 ;
692 [label="gini = 0.288\nsamples = 63\nvalue = [11, 52]"] ;
688 -> 692 ;
693 [label="X[327] <= -0.077\ngini = 0.444\nsamples = 120\nvalue = [40, 80]"] ;
683 -> 693 ;
694 [label="gini = 0.481\nsamples = 57\nvalue = [34, 23]"] ;
693 -> 694 ;
695 [label="gini = 0.172\nsamples = 63\nvalue = [6, 57]"] ;
693 -> 695 ;
696 [label="X[198] <= 0.042\ngini = 0.471\nsamples = 203\nvalue = [77, 126]"] ;
682 -> 696 ;
697 [label="gini = 0.483\nsamples = 76\nvalue = [45, 31]"] ;
696 -> 697 ;
698 [label="X[695] <= -0.057\ngini = 0.377\nsamples = 127\nvalue = [32, 95]"] ;
696 -> 698 ;
699 [label="gini = 0.497\nsamples = 50\nvalue = [23, 27]"] ;
698 -> 699 ;
700 [label="gini = 0.206\nsamples = 77\nvalue = [9, 68]"] ;
698 -> 700 ;
701 [label="X[1659] <= -0.31\ngini = 0.479\nsamples = 131\nvalue = [79, 52]"] ;
681 -> 701 ;
702 [label="gini = 0.471\nsamples = 58\nvalue = [22, 36]"] ;
701 -> 702 ;
703 [label="gini = 0.342\nsamples = 73\nvalue = [57, 16]"] ;
701 -> 703 ;
704 [label="X[1292] <= 0.109\ngini = 0.373\nsamples = 6749\nvalue = [5075, 1674]"] ;
640 -> 704 ;
705 [label="X[1991] <= -0.046\ngini = 0.288\nsamples = 4996\nvalue = [4124, 872]"] ;
704 -> 705 ;
706 [label="X[458] <= -0.125\ngini = 0.401\nsamples = 2140\nvalue = [1546, 594]"] ;
705 -> 706 ;
707 [label="X[2170] <= -0.016\ngini = 0.305\nsamples = 1186\nvalue = [963, 223]"] ;
706 -> 707 ;
708 [label="X[1319] <= -0.152\ngini = 0.4\nsamples = 603\nvalue = [436, 167]"] ;
707 -> 708 ;
709 [label="X[2331] <= -0.175\ngini = 0.252\nsamples = 297\nvalue = [253, 44]"] ;
708 -> 709 ;
710 [label="X[1567] <= -0.438\ngini = 0.108\nsamples = 174\nvalue = [164, 10]"] ;
709 -> 710 ;
711 [label="gini = 0.32\nsamples = 50\nvalue = [40, 10]"] ;
710 -> 711 ;
712 [label="gini = 0.0\nsamples = 124\nvalue = [124, 0]"] ;
710 -> 712 ;
713 [label="X[425] <= -0.251\ngini = 0.4\nsamples = 123\nvalue = [89, 34]"] ;
709 -> 713 ;
714 [label="gini = 0.18\nsamples = 60\nvalue = [54, 6]"] ;
713 -> 714 ;
715 [label="gini = 0.494\nsamples = 63\nvalue = [35, 28]"] ;
713 -> 715 ;
716 [label="X[2066] <= -0.21\ngini = 0.481\nsamples = 306\nvalue = [183, 123]"] ;
708 -> 716 ;
717 [label="X[990] <= 0.032\ngini = 0.485\nsamples = 145\nvalue = [60, 85]"] ;
716 -> 717 ;
718 [label="gini = 0.378\nsamples = 83\nvalue = [21, 62]"] ;
717 -> 718 ;
719 [label="gini = 0.467\nsamples = 62\nvalue = [39, 23]"] ;
717 -> 719 ;
720 [label="X[1069] <= 0.074\ngini = 0.361\nsamples = 161\nvalue = [123, 38]"] ;
716 -> 720 ;
721 [label="X[709] <= 0.097\ngini = 0.208\nsamples = 110\nvalue = [97, 13]"] ;
720 -> 721 ;
722 [label="gini = 0.0\nsamples = 53\nvalue = [53, 0]"] ;
721 -> 722 ;
723 [label="gini = 0.352\nsamples = 57\nvalue = [44, 13]"] ;
721 -> 723 ;
724 [label="gini = 0.5\nsamples = 51\nvalue = [26, 25]"] ;
720 -> 724 ;
725 [label="X[2222] <= -0.009\ngini = 0.174\nsamples = 583\nvalue = [527, 56]"] ;
707 -> 725 ;
726 [label="X[257] <= -0.182\ngini = 0.117\nsamples = 466\nvalue = [437, 29]"] ;
725 -> 726 ;
727 [label="gini = 0.29\nsamples = 91\nvalue = [75, 16]"] ;
726 -> 727 ;
728 [label="X[1471] <= -0.077\ngini = 0.067\nsamples = 375\nvalue = [362, 13]"] ;
726 -> 728 ;
729 [label="X[1354] <= -0.323\ngini = 0.008\nsamples = 265\nvalue = [264, 1]"] ;
728 -> 729 ;
730 [label="gini = 0.039\nsamples = 50\nvalue = [49, 1]"] ;
729 -> 730 ;
731 [label="gini = 0.0\nsamples = 215\nvalue = [215, 0]"] ;
729 -> 731 ;
732 [label="X[1853] <= 0.121\ngini = 0.194\nsamples = 110\nvalue = [98, 12]"] ;
728 -> 732 ;
733 [label="gini = 0.346\nsamples = 54\nvalue = [42, 12]"] ;
732 -> 733 ;
734 [label="gini = 0.0\nsamples = 56\nvalue = [56, 0]"] ;
732 -> 734 ;
735 [label="X[38] <= 0.087\ngini = 0.355\nsamples = 117\nvalue = [90, 27]"] ;
725 -> 735 ;
736 [label="gini = 0.163\nsamples = 67\nvalue = [61, 6]"] ;
735 -> 736 ;
737 [label="gini = 0.487\nsamples = 50\nvalue = [29, 21]"] ;
735 -> 737 ;
738 [label="X[2170] <= 0.047\ngini = 0.475\nsamples = 954\nvalue = [583, 371]"] ;
706 -> 738 ;
739 [label="X[1494] <= -0.294\ngini = 0.496\nsamples = 430\nvalue = [196, 234]"] ;
738 -> 739 ;
740 [label="gini = 0.331\nsamples = 67\nvalue = [53, 14]"] ;
739 -> 740 ;
741 [label="X[1435] <= 0.162\ngini = 0.478\nsamples = 363\nvalue = [143, 220]"] ;
739 -> 741 ;
742 [label="X[619] <= -0.121\ngini = 0.438\nsamples = 284\nvalue = [92, 192]"] ;
741 -> 742 ;
743 [label="X[1285] <= 0.046\ngini = 0.5\nsamples = 109\nvalue = [54, 55]"] ;
742 -> 743 ;
744 [label="gini = 0.436\nsamples = 56\nvalue = [38, 18]"] ;
743 -> 744 ;
745 [label="gini = 0.422\nsamples = 53\nvalue = [16, 37]"] ;
743 -> 745 ;
746 [label="X[2172] <= 0.08\ngini = 0.34\nsamples = 175\nvalue = [38, 137]"] ;
742 -> 746 ;
747 [label="X[2224] <= 0.104\ngini = 0.163\nsamples = 112\nvalue = [10, 102]"] ;
746 -> 747 ;
748 [label="gini = 0.0\nsamples = 62\nvalue = [0, 62]"] ;
747 -> 748 ;
749 [label="gini = 0.32\nsamples = 50\nvalue = [10, 40]"] ;
747 -> 749 ;
750 [label="gini = 0.494\nsamples = 63\nvalue = [28, 35]"] ;
746 -> 750 ;
751 [label="gini = 0.458\nsamples = 79\nvalue = [51, 28]"] ;
741 -> 751 ;
752 [label="X[1484] <= -0.05\ngini = 0.386\nsamples = 524\nvalue = [387, 137]"] ;
738 -> 752 ;
753 [label="X[2172] <= 0.003\ngini = 0.291\nsamples = 351\nvalue = [289, 62]"] ;
752 -> 753 ;
754 [label="X[1115] <= -0.094\ngini = 0.452\nsamples = 119\nvalue = [78, 41]"] ;
753 -> 754 ;
755 [label="gini = 0.287\nsamples = 69\nvalue = [57, 12]"] ;
754 -> 755 ;
756 [label="gini = 0.487\nsamples = 50\nvalue = [21, 29]"] ;
754 -> 756 ;
757 [label="X[27] <= 0.139\ngini = 0.165\nsamples = 232\nvalue = [211, 21]"] ;
753 -> 757 ;
758 [label="gini = 0.362\nsamples = 59\nvalue = [45, 14]"] ;
757 -> 758 ;
759 [label="X[732] <= 0.164\ngini = 0.078\nsamples = 173\nvalue = [166, 7]"] ;
757 -> 759 ;
760 [label="gini = 0.0\nsamples = 121\nvalue = [121, 0]"] ;
759 -> 760 ;
761 [label="gini = 0.233\nsamples = 52\nvalue = [45, 7]"] ;
759 -> 761 ;
762 [label="X[391] <= -0.027\ngini = 0.491\nsamples = 173\nvalue = [98, 75]"] ;
752 -> 762 ;
763 [label="gini = 0.455\nsamples = 77\nvalue = [27, 50]"] ;
762 -> 763 ;
764 [label="gini = 0.385\nsamples = 96\nvalue = [71, 25]"] ;
762 -> 764 ;
765 [label="X[2170] <= -0.236\ngini = 0.176\nsamples = 2856\nvalue = [2578, 278]"] ;
705 -> 765 ;
766 [label="X[684] <= -0.064\ngini = 0.343\nsamples = 519\nvalue = [405, 114]"] ;
765 -> 766 ;
767 [label="X[1175] <= -0.228\ngini = 0.275\nsamples = 455\nvalue = [380, 75]"] ;
766 -> 767 ;
768 [label="X[2144] <= -0.294\ngini = 0.166\nsamples = 307\nvalue = [279, 28]"] ;
767 -> 768 ;
769 [label="gini = 0.41\nsamples = 59\nvalue = [42, 17]"] ;
768 -> 769 ;
770 [label="X[1331] <= -0.344\ngini = 0.085\nsamples = 248\nvalue = [237, 11]"] ;
768 -> 770 ;
771 [label="gini = 0.269\nsamples = 50\nvalue = [42, 8]"] ;
770 -> 771 ;
772 [label="X[1640] <= -0.113\ngini = 0.03\nsamples = 198\nvalue = [195, 3]"] ;
770 -> 772 ;
773 [label="gini = 0.113\nsamples = 50\nvalue = [47, 3]"] ;
772 -> 773 ;
774 [label="gini = 0.0\nsamples = 148\nvalue = [148, 0]"] ;
772 -> 774 ;
775 [label="X[1224] <= -0.108\ngini = 0.433\nsamples = 148\nvalue = [101, 47]"] ;
767 -> 775 ;
776 [label="gini = 0.5\nsamples = 76\nvalue = [39, 37]"] ;
775 -> 776 ;
777 [label="gini = 0.239\nsamples = 72\nvalue = [62, 10]"] ;
775 -> 777 ;
778 [label="gini = 0.476\nsamples = 64\nvalue = [25, 39]"] ;
766 -> 778 ;
779 [label="X[2277] <= 0.059\ngini = 0.131\nsamples = 2337\nvalue = [2173, 164]"] ;
765 -> 779 ;
780 [label="X[2305] <= -0.366\ngini = 0.087\nsamples = 1826\nvalue = [1743, 83]"] ;
779 -> 780 ;
781 [label="gini = 0.386\nsamples = 69\nvalue = [51, 18]"] ;
780 -> 781 ;
782 [label="X[1435] <= -0.166\ngini = 0.071\nsamples = 1757\nvalue = [1692, 65]"] ;
780 -> 782 ;
783 [label="X[1495] <= -0.2\ngini = 0.228\nsamples = 229\nvalue = [199, 30]"] ;
782 -> 783 ;
784 [label="X[655] <= -0.1\ngini = 0.034\nsamples = 114\nvalue = [112, 2]"] ;
783 -> 784 ;
785 [label="gini = 0.0\nsamples = 64\nvalue = [64, 0]"] ;
784 -> 785 ;
786 [label="gini = 0.077\nsamples = 50\nvalue = [48, 2]"] ;
784 -> 786 ;
787 [label="X[1991] <= 0.163\ngini = 0.368\nsamples = 115\nvalue = [87, 28]"] ;
783 -> 787 ;
788 [label="gini = 0.485\nsamples = 58\nvalue = [34, 24]"] ;
787 -> 788 ;
789 [label="gini = 0.131\nsamples = 57\nvalue = [53, 4]"] ;
787 -> 789 ;
790 [label="X[1853] <= -0.251\ngini = 0.045\nsamples = 1528\nvalue = [1493, 35]"] ;
782 -> 790 ;
791 [label="X[1617] <= -0.075\ngini = 0.203\nsamples = 148\nvalue = [131, 17]"] ;
790 -> 791 ;
792 [label="gini = 0.023\nsamples = 87\nvalue = [86, 1]"] ;
791 -> 792 ;
793 [label="gini = 0.387\nsamples = 61\nvalue = [45, 16]"] ;
791 -> 793 ;
794 [label="X[364] <= -0.394\ngini = 0.026\nsamples = 1380\nvalue = [1362, 18]"] ;
790 -> 794 ;
795 [label="gini = 0.18\nsamples = 50\nvalue = [45, 5]"] ;
794 -> 795 ;
796 [label="X[1198] <= 0.221\ngini = 0.019\nsamples = 1330\nvalue = [1317, 13]"] ;
794 -> 796 ;
797 [label="X[642] <= 0.11\ngini = 0.014\nsamples = 1280\nvalue = [1271, 9]"] ;
796 -> 797 ;
798 [label="X[2114] <= -0.522\ngini = 0.002\nsamples = 998\nvalue = [997, 1]"] ;
797 -> 798 ;
799 [label="gini = 0.039\nsamples = 50\nvalue = [49, 1]"] ;
798 -> 799 ;
800 [label="gini = 0.0\nsamples = 948\nvalue = [948, 0]"] ;
798 -> 800 ;
801 [label="X[1284] <= 0.332\ngini = 0.055\nsamples = 282\nvalue = [274, 8]"] ;
797 -> 801 ;
802 [label="X[1627] <= 0.053\ngini = 0.017\nsamples = 232\nvalue = [230, 2]"] ;
801 -> 802 ;
803 [label="gini = 0.0\nsamples = 182\nvalue = [182, 0]"] ;
802 -> 803 ;
804 [label="gini = 0.077\nsamples = 50\nvalue = [48, 2]"] ;
802 -> 804 ;
805 [label="gini = 0.211\nsamples = 50\nvalue = [44, 6]"] ;
801 -> 805 ;
806 [label="gini = 0.147\nsamples = 50\nvalue = [46, 4]"] ;
796 -> 806 ;
807 [label="X[1058] <= -0.22\ngini = 0.267\nsamples = 511\nvalue = [430, 81]"] ;
779 -> 807 ;
808 [label="X[2144] <= -0.015\ngini = 0.447\nsamples = 104\nvalue = [69, 35]"] ;
807 -> 808 ;
809 [label="gini = 0.498\nsamples = 51\nvalue = [24, 27]"] ;
808 -> 809 ;
810 [label="gini = 0.256\nsamples = 53\nvalue = [45, 8]"] ;
808 -> 810 ;
811 [label="X[590] <= 0.089\ngini = 0.2\nsamples = 407\nvalue = [361, 46]"] ;
807 -> 811 ;
812 [label="X[1513] <= 0.238\ngini = 0.138\nsamples = 335\nvalue = [310, 25]"] ;
811 -> 812 ;
813 [label="X[1421] <= 0.238\ngini = 0.081\nsamples = 282\nvalue = [270, 12]"] ;
812 -> 813 ;
814 [label="X[1670] <= 0.21\ngini = 0.034\nsamples = 232\nvalue = [228, 4]"] ;
813 -> 814 ;
815 [label="gini = 0.0\nsamples = 182\nvalue = [182, 0]"] ;
814 -> 815 ;
816 [label="gini = 0.147\nsamples = 50\nvalue = [46, 4]"] ;
814 -> 816 ;
817 [label="gini = 0.269\nsamples = 50\nvalue = [42, 8]"] ;
813 -> 817 ;
818 [label="gini = 0.37\nsamples = 53\nvalue = [40, 13]"] ;
812 -> 818 ;
819 [label="gini = 0.413\nsamples = 72\nvalue = [51, 21]"] ;
811 -> 819 ;
820 [label="X[1991] <= -0.028\ngini = 0.496\nsamples = 1753\nvalue = [951, 802]"] ;
704 -> 820 ;
821 [label="X[1022] <= 0.13\ngini = 0.481\nsamples = 814\nvalue = [328, 486]"] ;
820 -> 821 ;
822 [label="X[1208] <= -0.297\ngini = 0.41\nsamples = 459\nvalue = [132, 327]"] ;
821 -> 822 ;
823 [label="X[266] <= -0.092\ngini = 0.5\nsamples = 134\nvalue = [67, 67]"] ;
822 -> 823 ;
824 [label="gini = 0.334\nsamples = 52\nvalue = [11, 41]"] ;
823 -> 824 ;
825 [label="gini = 0.433\nsamples = 82\nvalue = [56, 26]"] ;
823 -> 825 ;
826 [label="X[114] <= -0.031\ngini = 0.32\nsamples = 325\nvalue = [65, 260]"] ;
822 -> 826 ;
827 [label="gini = 0.486\nsamples = 72\nvalue = [30, 42]"] ;
826 -> 827 ;
828 [label="X[1410] <= -0.182\ngini = 0.238\nsamples = 253\nvalue = [35, 218]"] ;
826 -> 828 ;
829 [label="gini = 0.444\nsamples = 57\nvalue = [19, 38]"] ;
828 -> 829 ;
830 [label="X[1734] <= 0.055\ngini = 0.15\nsamples = 196\nvalue = [16, 180]"] ;
828 -> 830 ;
831 [label="gini = 0.365\nsamples = 50\nvalue = [12, 38]"] ;
830 -> 831 ;
832 [label="X[1717] <= 0.163\ngini = 0.053\nsamples = 146\nvalue = [4, 142]"] ;
830 -> 832 ;
833 [label="gini = 0.0\nsamples = 96\nvalue = [0, 96]"] ;
832 -> 833 ;
834 [label="gini = 0.147\nsamples = 50\nvalue = [4, 46]"] ;
832 -> 834 ;
835 [label="X[1435] <= -0.029\ngini = 0.495\nsamples = 355\nvalue = [196, 159]"] ;
821 -> 835 ;
836 [label="X[607] <= -0.137\ngini = 0.448\nsamples = 118\nvalue = [40, 78]"] ;
835 -> 836 ;
837 [label="gini = 0.499\nsamples = 63\nvalue = [33, 30]"] ;
836 -> 837 ;
838 [label="gini = 0.222\nsamples = 55\nvalue = [7, 48]"] ;
836 -> 838 ;
839 [label="X[861] <= 0.132\ngini = 0.45\nsamples = 237\nvalue = [156, 81]"] ;
835 -> 839 ;
840 [label="X[1536] <= -0.191\ngini = 0.362\nsamples = 177\nvalue = [135, 42]"] ;
839 -> 840 ;
841 [label="gini = 0.493\nsamples = 59\nvalue = [33, 26]"] ;
840 -> 841 ;
842 [label="X[196] <= 0.184\ngini = 0.234\nsamples = 118\nvalue = [102, 16]"] ;
840 -> 842 ;
843 [label="gini = 0.057\nsamples = 68\nvalue = [66, 2]"] ;
842 -> 843 ;
844 [label="gini = 0.403\nsamples = 50\nvalue = [36, 14]"] ;
842 -> 844 ;
845 [label="gini = 0.455\nsamples = 60\nvalue = [21, 39]"] ;
839 -> 845 ;
846 [label="X[1861] <= -0.334\ngini = 0.447\nsamples = 939\nvalue = [623, 316]"] ;
820 -> 846 ;
847 [label="X[1355] <= 0.303\ngini = 0.247\nsamples = 256\nvalue = [219, 37]"] ;
846 -> 847 ;
848 [label="X[1172] <= -0.085\ngini = 0.151\nsamples = 194\nvalue = [178, 16]"] ;
847 -> 848 ;
849 [label="X[1283] <= 0.065\ngini = 0.045\nsamples = 129\nvalue = [126, 3]"] ;
848 -> 849 ;
850 [label="gini = 0.0\nsamples = 79\nvalue = [79, 0]"] ;
849 -> 850 ;
851 [label="gini = 0.113\nsamples = 50\nvalue = [47, 3]"] ;
849 -> 851 ;
852 [label="gini = 0.32\nsamples = 65\nvalue = [52, 13]"] ;
848 -> 852 ;
853 [label="gini = 0.448\nsamples = 62\nvalue = [41, 21]"] ;
847 -> 853 ;
854 [label="X[682] <= 0.289\ngini = 0.483\nsamples = 683\nvalue = [404, 279]"] ;
846 -> 854 ;
855 [label="X[430] <= 0.126\ngini = 0.499\nsamples = 541\nvalue = [285, 256]"] ;
854 -> 855 ;
856 [label="X[2020] <= -0.031\ngini = 0.47\nsamples = 350\nvalue = [218, 132]"] ;
855 -> 856 ;
857 [label="X[686] <= 0.169\ngini = 0.496\nsamples = 150\nvalue = [68, 82]"] ;
856 -> 857 ;
858 [label="gini = 0.478\nsamples = 99\nvalue = [60, 39]"] ;
857 -> 858 ;
859 [label="gini = 0.265\nsamples = 51\nvalue = [8, 43]"] ;
857 -> 859 ;
860 [label="X[2218] <= -0.043\ngini = 0.375\nsamples = 200\nvalue = [150, 50]"] ;
856 -> 860 ;
861 [label="gini = 0.485\nsamples = 82\nvalue = [48, 34]"] ;
860 -> 861 ;
862 [label="X[771] <= 0.162\ngini = 0.234\nsamples = 118\nvalue = [102, 16]"] ;
860 -> 862 ;
863 [label="gini = 0.057\nsamples = 68\nvalue = [66, 2]"] ;
862 -> 863 ;
864 [label="gini = 0.403\nsamples = 50\nvalue = [36, 14]"] ;
862 -> 864 ;
865 [label="X[695] <= 0.127\ngini = 0.455\nsamples = 191\nvalue = [67, 124]"] ;
855 -> 865 ;
866 [label="gini = 0.499\nsamples = 88\nvalue = [46, 42]"] ;
865 -> 866 ;
867 [label="X[2288] <= -0.145\ngini = 0.325\nsamples = 103\nvalue = [21, 82]"] ;
865 -> 867 ;
868 [label="gini = 0.107\nsamples = 53\nvalue = [3, 50]"] ;
867 -> 868 ;
869 [label="gini = 0.461\nsamples = 50\nvalue = [18, 32]"] ;
867 -> 869 ;
870 [label="X[465] <= 0.072\ngini = 0.271\nsamples = 142\nvalue = [119, 23]"] ;
854 -> 870 ;
871 [label="gini = 0.027\nsamples = 72\nvalue = [71, 1]"] ;
870 -> 871 ;
872 [label="gini = 0.431\nsamples = 70\nvalue = [48, 22]"] ;
870 -> 872 ;
873 [label="X[1292] <= -0.027\ngini = 0.468\nsamples = 7004\nvalue = [2611, 4393]"] ;
639 -> 873 ;
874 [label="X[1224] <= -0.292\ngini = 0.5\nsamples = 3515\nvalue = [1756, 1759]"] ;
873 -> 874 ;
875 [label="X[1991] <= -0.067\ngini = 0.393\nsamples = 1101\nvalue = [296, 805]"] ;
874 -> 875 ;
876 [label="X[971] <= 0.419\ngini = 0.304\nsamples = 739\nvalue = [138, 601]"] ;
875 -> 876 ;
877 [label="X[1912] <= -0.54\ngini = 0.267\nsamples = 686\nvalue = [109, 577]"] ;
876 -> 877 ;
878 [label="gini = 0.495\nsamples = 62\nvalue = [28, 34]"] ;
877 -> 878 ;
879 [label="X[590] <= -0.012\ngini = 0.226\nsamples = 624\nvalue = [81, 543]"] ;
877 -> 879 ;
880 [label="X[2062] <= 0.327\ngini = 0.327\nsamples = 354\nvalue = [73, 281]"] ;
879 -> 880 ;
881 [label="X[9] <= -0.308\ngini = 0.26\nsamples = 300\nvalue = [46, 254]"] ;
880 -> 881 ;
882 [label="gini = 0.461\nsamples = 61\nvalue = [22, 39]"] ;
881 -> 882 ;
883 [label="X[689] <= -0.049\ngini = 0.181\nsamples = 239\nvalue = [24, 215]"] ;
881 -> 883 ;
884 [label="X[1652] <= -0.441\ngini = 0.054\nsamples = 143\nvalue = [4, 139]"] ;
883 -> 884 ;
885 [label="gini = 0.147\nsamples = 50\nvalue = [4, 46]"] ;
884 -> 885 ;
886 [label="gini = 0.0\nsamples = 93\nvalue = [0, 93]"] ;
884 -> 886 ;
887 [label="gini = 0.33\nsamples = 96\nvalue = [20, 76]"] ;
883 -> 887 ;
888 [label="gini = 0.5\nsamples = 54\nvalue = [27, 27]"] ;
880 -> 888 ;
889 [label="X[1770] <= -0.181\ngini = 0.058\nsamples = 270\nvalue = [8, 262]"] ;
879 -> 889 ;
890 [label="gini = 0.182\nsamples = 79\nvalue = [8, 71]"] ;
889 -> 890 ;
891 [label="gini = 0.0\nsamples = 191\nvalue = [0, 191]"] ;
889 -> 891 ;
892 [label="gini = 0.496\nsamples = 53\nvalue = [29, 24]"] ;
876 -> 892 ;
893 [label="X[193] <= 0.04\ngini = 0.492\nsamples = 362\nvalue = [158, 204]"] ;
875 -> 893 ;
894 [label="X[585] <= -0.243\ngini = 0.421\nsamples = 226\nvalue = [68, 158]"] ;
893 -> 894 ;
895 [label="X[1243] <= 0.044\ngini = 0.25\nsamples = 109\nvalue = [16, 93]"] ;
894 -> 895 ;
896 [label="gini = 0.065\nsamples = 59\nvalue = [2, 57]"] ;
895 -> 896 ;
897 [label="gini = 0.403\nsamples = 50\nvalue = [14, 36]"] ;
895 -> 897 ;
898 [label="X[1494] <= 0.028\ngini = 0.494\nsamples = 117\nvalue = [52, 65]"] ;
894 -> 898 ;
899 [label="gini = 0.452\nsamples = 58\nvalue = [38, 20]"] ;
898 -> 899 ;
900 [label="gini = 0.362\nsamples = 59\nvalue = [14, 45]"] ;
898 -> 900 ;
901 [label="X[1483] <= -0.12\ngini = 0.448\nsamples = 136\nvalue = [90, 46]"] ;
893 -> 901 ;
902 [label="gini = 0.497\nsamples = 61\nvalue = [28, 33]"] ;
901 -> 902 ;
903 [label="gini = 0.287\nsamples = 75\nvalue = [62, 13]"] ;
901 -> 903 ;
904 [label="X[1991] <= -0.212\ngini = 0.478\nsamples = 2414\nvalue = [1460, 954]"] ;
874 -> 904 ;
905 [label="X[114] <= -0.257\ngini = 0.478\nsamples = 679\nvalue = [269, 410]"] ;
904 -> 905 ;
906 [label="X[1432] <= -0.16\ngini = 0.478\nsamples = 207\nvalue = [125, 82]"] ;
905 -> 906 ;
907 [label="gini = 0.469\nsamples = 88\nvalue = [33, 55]"] ;
906 -> 907 ;
908 [label="X[1224] <= -0.112\ngini = 0.351\nsamples = 119\nvalue = [92, 27]"] ;
906 -> 908 ;
909 [label="gini = 0.468\nsamples = 67\nvalue = [42, 25]"] ;
908 -> 909 ;
910 [label="gini = 0.074\nsamples = 52\nvalue = [50, 2]"] ;
908 -> 910 ;
911 [label="X[2170] <= 0.085\ngini = 0.424\nsamples = 472\nvalue = [144, 328]"] ;
905 -> 911 ;
912 [label="X[520] <= -0.136\ngini = 0.311\nsamples = 270\nvalue = [52, 218]"] ;
911 -> 912 ;
913 [label="gini = 0.493\nsamples = 68\nvalue = [30, 38]"] ;
912 -> 913 ;
914 [label="X[850] <= 0.028\ngini = 0.194\nsamples = 202\nvalue = [22, 180]"] ;
912 -> 914 ;
915 [label="X[435] <= -0.182\ngini = 0.09\nsamples = 149\nvalue = [7, 142]"] ;
914 -> 915 ;
916 [label="gini = 0.241\nsamples = 50\nvalue = [7, 43]"] ;
915 -> 916 ;
917 [label="gini = 0.0\nsamples = 99\nvalue = [0, 99]"] ;
915 -> 917 ;
918 [label="gini = 0.406\nsamples = 53\nvalue = [15, 38]"] ;
914 -> 918 ;
919 [label="X[1175] <= 0.034\ngini = 0.496\nsamples = 202\nvalue = [92, 110]"] ;
911 -> 919 ;
920 [label="X[1228] <= -0.098\ngini = 0.487\nsamples = 143\nvalue = [83, 60]"] ;
919 -> 920 ;
921 [label="gini = 0.458\nsamples = 59\nvalue = [21, 38]"] ;
920 -> 921 ;
922 [label="gini = 0.387\nsamples = 84\nvalue = [62, 22]"] ;
920 -> 922 ;
923 [label="gini = 0.259\nsamples = 59\nvalue = [9, 50]"] ;
919 -> 923 ;
924 [label="X[2170] <= -0.045\ngini = 0.43\nsamples = 1735\nvalue = [1191, 544]"] ;
904 -> 924 ;
925 [label="X[1175] <= -0.273\ngini = 0.491\nsamples = 774\nvalue = [439, 335]"] ;
924 -> 925 ;
926 [label="X[1224] <= -0.22\ngini = 0.364\nsamples = 293\nvalue = [223, 70]"] ;
925 -> 926 ;
927 [label="gini = 0.498\nsamples = 70\nvalue = [37, 33]"] ;
926 -> 927 ;
928 [label="X[2172] <= -0.158\ngini = 0.277\nsamples = 223\nvalue = [186, 37]"] ;
926 -> 928 ;
929 [label="gini = 0.493\nsamples = 50\nvalue = [28, 22]"] ;
928 -> 929 ;
930 [label="X[11] <= -0.295\ngini = 0.158\nsamples = 173\nvalue = [158, 15]"] ;
928 -> 930 ;
931 [label="gini = 0.313\nsamples = 67\nvalue = [54, 13]"] ;
930 -> 931 ;
932 [label="X[1582] <= -0.227\ngini = 0.037\nsamples = 106\nvalue = [104, 2]"] ;
930 -> 932 ;
933 [label="gini = 0.0\nsamples = 56\nvalue = [56, 0]"] ;
932 -> 933 ;
934 [label="gini = 0.077\nsamples = 50\nvalue = [48, 2]"] ;
932 -> 934 ;
935 [label="X[1991] <= 0.11\ngini = 0.495\nsamples = 481\nvalue = [216, 265]"] ;
925 -> 935 ;
936 [label="X[850] <= -0.1\ngini = 0.439\nsamples = 298\nvalue = [97, 201]"] ;
935 -> 936 ;
937 [label="X[1050] <= -0.18\ngini = 0.282\nsamples = 141\nvalue = [24, 117]"] ;
936 -> 937 ;
938 [label="gini = 0.449\nsamples = 53\nvalue = [18, 35]"] ;
937 -> 938 ;
939 [label="gini = 0.127\nsamples = 88\nvalue = [6, 82]"] ;
937 -> 939 ;
940 [label="X[835] <= 0.208\ngini = 0.498\nsamples = 157\nvalue = [73, 84]"] ;
936 -> 940 ;
941 [label="X[2019] <= 0.034\ngini = 0.478\nsamples = 104\nvalue = [63, 41]"] ;
940 -> 941 ;
942 [label="gini = 0.466\nsamples = 54\nvalue = [20, 34]"] ;
941 -> 942 ;
943 [label="gini = 0.241\nsamples = 50\nvalue = [43, 7]"] ;
941 -> 943 ;
944 [label="gini = 0.306\nsamples = 53\nvalue = [10, 43]"] ;
940 -> 944 ;
945 [label="X[1861] <= 0.24\ngini = 0.455\nsamples = 183\nvalue = [119, 64]"] ;
935 -> 945 ;
946 [label="X[1550] <= -0.028\ngini = 0.337\nsamples = 121\nvalue = [95, 26]"] ;
945 -> 946 ;
947 [label="gini = 0.114\nsamples = 66\nvalue = [62, 4]"] ;
946 -> 947 ;
948 [label="gini = 0.48\nsamples = 55\nvalue = [33, 22]"] ;
946 -> 948 ;
949 [label="gini = 0.475\nsamples = 62\nvalue = [24, 38]"] ;
945 -> 949 ;
950 [label="X[1292] <= -0.236\ngini = 0.34\nsamples = 961\nvalue = [752, 209]"] ;
924 -> 950 ;
951 [label="X[728] <= 0.323\ngini = 0.196\nsamples = 399\nvalue = [355, 44]"] ;
950 -> 951 ;
952 [label="X[1693] <= -0.108\ngini = 0.137\nsamples = 337\nvalue = [312, 25]"] ;
951 -> 952 ;
953 [label="gini = 0.343\nsamples = 50\nvalue = [39, 11]"] ;
952 -> 953 ;
954 [label="X[1373] <= -0.334\ngini = 0.093\nsamples = 287\nvalue = [273, 14]"] ;
952 -> 954 ;
955 [label="gini = 0.266\nsamples = 57\nvalue = [48, 9]"] ;
954 -> 955 ;
956 [label="X[2314] <= -0.095\ngini = 0.043\nsamples = 230\nvalue = [225, 5]"] ;
954 -> 956 ;
957 [label="gini = 0.18\nsamples = 50\nvalue = [45, 5]"] ;
956 -> 957 ;
958 [label="gini = 0.0\nsamples = 180\nvalue = [180, 0]"] ;
956 -> 958 ;
959 [label="gini = 0.425\nsamples = 62\nvalue = [43, 19]"] ;
951 -> 959 ;
960 [label="X[1752] <= 0.227\ngini = 0.415\nsamples = 562\nvalue = [397, 165]"] ;
950 -> 960 ;
961 [label="X[1079] <= -0.231\ngini = 0.306\nsamples = 324\nvalue = [263, 61]"] ;
960 -> 961 ;
962 [label="gini = 0.5\nsamples = 53\nvalue = [27, 26]"] ;
961 -> 962 ;
963 [label="X[2205] <= -0.161\ngini = 0.225\nsamples = 271\nvalue = [236, 35]"] ;
961 -> 963 ;
964 [label="gini = 0.433\nsamples = 60\nvalue = [41, 19]"] ;
963 -> 964 ;
965 [label="X[1004] <= 0.241\ngini = 0.14\nsamples = 211\nvalue = [195, 16]"] ;
963 -> 965 ;
966 [label="X[990] <= -0.095\ngini = 0.051\nsamples = 154\nvalue = [150, 4]"] ;
965 -> 966 ;
967 [label="gini = 0.147\nsamples = 50\nvalue = [46, 4]"] ;
966 -> 967 ;
968 [label="gini = 0.0\nsamples = 104\nvalue = [104, 0]"] ;
966 -> 968 ;
969 [label="gini = 0.332\nsamples = 57\nvalue = [45, 12]"] ;
965 -> 969 ;
970 [label="X[1574] <= -0.173\ngini = 0.492\nsamples = 238\nvalue = [134, 104]"] ;
960 -> 970 ;
971 [label="X[1433] <= -0.086\ngini = 0.403\nsamples = 125\nvalue = [90, 35]"] ;
970 -> 971 ;
972 [label="gini = 0.221\nsamples = 71\nvalue = [62, 9]"] ;
971 -> 972 ;
973 [label="gini = 0.499\nsamples = 54\nvalue = [28, 26]"] ;
971 -> 973 ;
974 [label="X[210] <= -0.1\ngini = 0.476\nsamples = 113\nvalue = [44, 69]"] ;
970 -> 974 ;
975 [label="gini = 0.475\nsamples = 54\nvalue = [33, 21]"] ;
974 -> 975 ;
976 [label="gini = 0.303\nsamples = 59\nvalue = [11, 48]"] ;
974 -> 976 ;
977 [label="X[1991] <= 0.175\ngini = 0.37\nsamples = 3489\nvalue = [855, 2634]"] ;
873 -> 977 ;
978 [label="X[1224] <= -0.178\ngini = 0.305\nsamples = 2848\nvalue = [535, 2313]"] ;
977 -> 978 ;
979 [label="X[2272] <= 0.103\ngini = 0.18\nsamples = 1510\nvalue = [151, 1359]"] ;
978 -> 979 ;
980 [label="X[682] <= 0.043\ngini = 0.148\nsamples = 1345\nvalue = [108, 1237]"] ;
979 -> 980 ;
981 [label="X[458] <= 0.02\ngini = 0.079\nsamples = 822\nvalue = [34, 788]"] ;
980 -> 981 ;
982 [label="X[1980] <= -0.136\ngini = 0.212\nsamples = 158\nvalue = [19, 139]"] ;
981 -> 982 ;
983 [label="gini = 0.041\nsamples = 96\nvalue = [2, 94]"] ;
982 -> 983 ;
984 [label="gini = 0.398\nsamples = 62\nvalue = [17, 45]"] ;
982 -> 984 ;
985 [label="X[194] <= -0.31\ngini = 0.044\nsamples = 664\nvalue = [15, 649]"] ;
981 -> 985 ;
986 [label="gini = 0.188\nsamples = 95\nvalue = [10, 85]"] ;
985 -> 986 ;
987 [label="X[327] <= -0.199\ngini = 0.017\nsamples = 569\nvalue = [5, 564]"] ;
985 -> 987 ;
988 [label="gini = 0.117\nsamples = 64\nvalue = [4, 60]"] ;
987 -> 988 ;
989 [label="X[32] <= 0.369\ngini = 0.004\nsamples = 505\nvalue = [1, 504]"] ;
987 -> 989 ;
990 [label="gini = 0.0\nsamples = 455\nvalue = [0, 455]"] ;
989 -> 990 ;
991 [label="gini = 0.039\nsamples = 50\nvalue = [1, 49]"] ;
989 -> 991 ;
992 [label="X[695] <= -0.236\ngini = 0.243\nsamples = 523\nvalue = [74, 449]"] ;
980 -> 992 ;
993 [label="gini = 0.462\nsamples = 80\nvalue = [29, 51]"] ;
992 -> 993 ;
994 [label="X[2033] <= -0.146\ngini = 0.183\nsamples = 443\nvalue = [45, 398]"] ;
992 -> 994 ;
995 [label="gini = 0.389\nsamples = 72\nvalue = [19, 53]"] ;
994 -> 995 ;
996 [label="X[361] <= -0.156\ngini = 0.13\nsamples = 371\nvalue = [26, 345]"] ;
994 -> 996 ;
997 [label="gini = 0.308\nsamples = 84\nvalue = [16, 68]"] ;
996 -> 997 ;
998 [label="X[2044] <= 0.162\ngini = 0.067\nsamples = 287\nvalue = [10, 277]"] ;
996 -> 998 ;
999 [label="X[1264] <= 0.031\ngini = 0.009\nsamples = 224\nvalue = [1, 223]"] ;
998 -> 999 ;
1000 [label="gini = 0.0\nsamples = 174\nvalue = [0, 174]"] ;
999 -> 1000 ;
1001 [label="gini = 0.039\nsamples = 50\nvalue = [1, 49]"] ;
999 -> 1001 ;
1002 [label="gini = 0.245\nsamples = 63\nvalue = [9, 54]"] ;
998 -> 1002 ;
1003 [label="X[1732] <= 0.21\ngini = 0.385\nsamples = 165\nvalue = [43, 122]"] ;
979 -> 1003 ;
1004 [label="gini = 0.158\nsamples = 81\nvalue = [7, 74]"] ;
1003 -> 1004 ;
1005 [label="gini = 0.49\nsamples = 84\nvalue = [36, 48]"] ;
1003 -> 1005 ;
1006 [label="X[27] <= 0.057\ngini = 0.409\nsamples = 1338\nvalue = [384, 954]"] ;
978 -> 1006 ;
1007 [label="X[1109] <= -0.338\ngini = 0.296\nsamples = 725\nvalue = [131, 594]"] ;
1006 -> 1007 ;
1008 [label="gini = 0.499\nsamples = 62\nvalue = [30, 32]"] ;
1007 -> 1008 ;
1009 [label="X[1104] <= 0.157\ngini = 0.258\nsamples = 663\nvalue = [101, 562]"] ;
1007 -> 1009 ;
1010 [label="X[364] <= -0.093\ngini = 0.175\nsamples = 486\nvalue = [47, 439]"] ;
1009 -> 1010 ;
1011 [label="X[1543] <= 0.035\ngini = 0.029\nsamples = 201\nvalue = [3, 198]"] ;
1010 -> 1011 ;
1012 [label="gini = 0.0\nsamples = 151\nvalue = [0, 151]"] ;
1011 -> 1012 ;
1013 [label="gini = 0.113\nsamples = 50\nvalue = [3, 47]"] ;
1011 -> 1013 ;
1014 [label="X[1022] <= 0.096\ngini = 0.261\nsamples = 285\nvalue = [44, 241]"] ;
1010 -> 1014 ;
1015 [label="X[1957] <= -0.128\ngini = 0.179\nsamples = 221\nvalue = [22, 199]"] ;
1014 -> 1015 ;
1016 [label="gini = 0.413\nsamples = 55\nvalue = [16, 39]"] ;
1015 -> 1016 ;
1017 [label="X[1334] <= -0.127\ngini = 0.07\nsamples = 166\nvalue = [6, 160]"] ;
1015 -> 1017 ;
1018 [label="gini = 0.211\nsamples = 50\nvalue = [6, 44]"] ;
1017 -> 1018 ;
1019 [label="gini = 0.0\nsamples = 116\nvalue = [0, 116]"] ;
1017 -> 1019 ;
1020 [label="gini = 0.451\nsamples = 64\nvalue = [22, 42]"] ;
1014 -> 1020 ;
1021 [label="X[1175] <= 0.243\ngini = 0.424\nsamples = 177\nvalue = [54, 123]"] ;
1009 -> 1021 ;
1022 [label="gini = 0.5\nsamples = 82\nvalue = [40, 42]"] ;
1021 -> 1022 ;
1023 [label="gini = 0.251\nsamples = 95\nvalue = [14, 81]"] ;
1021 -> 1023 ;
1024 [label="X[491] <= 0.148\ngini = 0.485\nsamples = 613\nvalue = [253, 360]"] ;
1006 -> 1024 ;
1025 [label="X[327] <= -0.066\ngini = 0.418\nsamples = 383\nvalue = [114, 269]"] ;
1024 -> 1025 ;
1026 [label="X[1208] <= -0.118\ngini = 0.499\nsamples = 131\nvalue = [63, 68]"] ;
1025 -> 1026 ;
1027 [label="gini = 0.375\nsamples = 52\nvalue = [39, 13]"] ;
1026 -> 1027 ;
1028 [label="gini = 0.423\nsamples = 79\nvalue = [24, 55]"] ;
1026 -> 1028 ;
1029 [label="X[445] <= -0.031\ngini = 0.323\nsamples = 252\nvalue = [51, 201]"] ;
1025 -> 1029 ;
1030 [label="X[1161] <= 0.038\ngini = 0.176\nsamples = 144\nvalue = [14, 130]"] ;
1029 -> 1030 ;
1031 [label="gini = 0.026\nsamples = 76\nvalue = [1, 75]"] ;
1030 -> 1031 ;
1032 [label="gini = 0.309\nsamples = 68\nvalue = [13, 55]"] ;
1030 -> 1032 ;
1033 [label="X[1991] <= -0.168\ngini = 0.45\nsamples = 108\nvalue = [37, 71]"] ;
1029 -> 1033 ;
1034 [label="gini = 0.233\nsamples = 52\nvalue = [7, 45]"] ;
1033 -> 1034 ;
1035 [label="gini = 0.497\nsamples = 56\nvalue = [30, 26]"] ;
1033 -> 1035 ;
1036 [label="X[1403] <= 0.221\ngini = 0.478\nsamples = 230\nvalue = [139, 91]"] ;
1024 -> 1036 ;
1037 [label="X[341] <= -0.004\ngini = 0.308\nsamples = 105\nvalue = [85, 20]"] ;
1036 -> 1037 ;
1038 [label="gini = 0.075\nsamples = 51\nvalue = [49, 2]"] ;
1037 -> 1038 ;
1039 [label="gini = 0.444\nsamples = 54\nvalue = [36, 18]"] ;
1037 -> 1039 ;
1040 [label="X[2066] <= -0.003\ngini = 0.491\nsamples = 125\nvalue = [54, 71]"] ;
1036 -> 1040 ;
1041 [label="gini = 0.291\nsamples = 51\nvalue = [9, 42]"] ;
1040 -> 1041 ;
1042 [label="gini = 0.477\nsamples = 74\nvalue = [45, 29]"] ;
1040 -> 1042 ;
1043 [label="X[1079] <= -0.074\ngini = 0.5\nsamples = 641\nvalue = [320, 321]"] ;
977 -> 1043 ;
1044 [label="X[1721] <= -0.142\ngini = 0.412\nsamples = 203\nvalue = [59, 144]"] ;
1043 -> 1044 ;
1045 [label="gini = 0.18\nsamples = 90\nvalue = [9, 81]"] ;
1044 -> 1045 ;
1046 [label="X[2037] <= 0.206\ngini = 0.493\nsamples = 113\nvalue = [50, 63]"] ;
1044 -> 1046 ;
1047 [label="gini = 0.35\nsamples = 53\nvalue = [12, 41]"] ;
1046 -> 1047 ;
1048 [label="gini = 0.464\nsamples = 60\nvalue = [38, 22]"] ;
1046 -> 1048 ;
1049 [label="X[1292] <= 0.276\ngini = 0.482\nsamples = 438\nvalue = [261, 177]"] ;
1043 -> 1049 ;
1050 [label="X[862] <= -0.112\ngini = 0.417\nsamples = 294\nvalue = [207, 87]"] ;
1049 -> 1050 ;
1051 [label="X[1284] <= -0.006\ngini = 0.229\nsamples = 129\nvalue = [112, 17]"] ;
1050 -> 1051 ;
1052 [label="gini = 0.0\nsamples = 59\nvalue = [59, 0]"] ;
1051 -> 1052 ;
1053 [label="gini = 0.368\nsamples = 70\nvalue = [53, 17]"] ;
1051 -> 1053 ;
1054 [label="X[927] <= 0.065\ngini = 0.489\nsamples = 165\nvalue = [95, 70]"] ;
1050 -> 1054 ;
1055 [label="X[1525] <= -0.154\ngini = 0.494\nsamples = 115\nvalue = [51, 64]"] ;
1054 -> 1055 ;
1056 [label="gini = 0.457\nsamples = 51\nvalue = [33, 18]"] ;
1055 -> 1056 ;
1057 [label="gini = 0.404\nsamples = 64\nvalue = [18, 46]"] ;
1055 -> 1057 ;
1058 [label="gini = 0.211\nsamples = 50\nvalue = [44, 6]"] ;
1054 -> 1058 ;
1059 [label="X[2305] <= -0.003\ngini = 0.469\nsamples = 144\nvalue = [54, 90]"] ;
1049 -> 1059 ;
1060 [label="gini = 0.338\nsamples = 93\nvalue = [20, 73]"] ;
1059 -> 1060 ;
1061 [label="gini = 0.444\nsamples = 51\nvalue = [34, 17]"] ;
1059 -> 1061 ;
1062 [label="X[1732] <= -0.075\ngini = 0.385\nsamples = 51587\nvalue = [38169, 13418]"] ;
0 -> 1062 [labeldistance=2.5, labelangle=-45, headlabel="False"] ;
1063 [label="X[590] <= 0.083\ngini = 0.5\nsamples = 16845\nvalue = [8678, 8167]"] ;
1062 -> 1063 ;
1064 [label="X[1224] <= 0.177\ngini = 0.455\nsamples = 9090\nvalue = [5912, 3178]"] ;
1063 -> 1064 ;
1065 [label="X[859] <= -0.066\ngini = 0.498\nsamples = 4771\nvalue = [2535, 2236]"] ;
1064 -> 1065 ;
1066 [label="X[682] <= -0.291\ngini = 0.446\nsamples = 2402\nvalue = [1596, 806]"] ;
1065 -> 1066 ;
1067 [label="X[590] <= -0.311\ngini = 0.494\nsamples = 476\nvalue = [211, 265]"] ;
1066 -> 1067 ;
1068 [label="X[2066] <= -0.092\ngini = 0.432\nsamples = 130\nvalue = [89, 41]"] ;
1067 -> 1068 ;
1069 [label="gini = 0.499\nsamples = 62\nvalue = [32, 30]"] ;
1068 -> 1069 ;
1070 [label="gini = 0.271\nsamples = 68\nvalue = [57, 11]"] ;
1068 -> 1070 ;
1071 [label="X[2140] <= -0.047\ngini = 0.457\nsamples = 346\nvalue = [122, 224]"] ;
1067 -> 1071 ;
1072 [label="X[859] <= -0.332\ngini = 0.321\nsamples = 184\nvalue = [37, 147]"] ;
1071 -> 1072 ;
1073 [label="gini = 0.488\nsamples = 59\nvalue = [25, 34]"] ;
1072 -> 1073 ;
1074 [label="X[588] <= -0.062\ngini = 0.174\nsamples = 125\nvalue = [12, 113]"] ;
1072 -> 1074 ;
1075 [label="gini = 0.328\nsamples = 58\nvalue = [12, 46]"] ;
1074 -> 1075 ;
1076 [label="gini = 0.0\nsamples = 67\nvalue = [0, 67]"] ;
1074 -> 1076 ;
1077 [label="X[682] <= -0.433\ngini = 0.499\nsamples = 162\nvalue = [85, 77]"] ;
1071 -> 1077 ;
1078 [label="gini = 0.434\nsamples = 66\nvalue = [21, 45]"] ;
1077 -> 1078 ;
1079 [label="gini = 0.444\nsamples = 96\nvalue = [64, 32]"] ;
1077 -> 1079 ;
1080 [label="X[327] <= 0.05\ngini = 0.404\nsamples = 1926\nvalue = [1385, 541]"] ;
1066 -> 1080 ;
1081 [label="X[62] <= -0.191\ngini = 0.331\nsamples = 1331\nvalue = [1052, 279]"] ;
1080 -> 1081 ;
1082 [label="X[1175] <= -0.241\ngini = 0.421\nsamples = 677\nvalue = [473, 204]"] ;
1081 -> 1082 ;
1083 [label="X[2133] <= -0.282\ngini = 0.252\nsamples = 298\nvalue = [254, 44]"] ;
1082 -> 1083 ;
1084 [label="gini = 0.439\nsamples = 80\nvalue = [54, 26]"] ;
1083 -> 1084 ;
1085 [label="X[529] <= 0.05\ngini = 0.152\nsamples = 218\nvalue = [200, 18]"] ;
1083 -> 1085 ;
1086 [label="X[2018] <= -0.131\ngini = 0.069\nsamples = 167\nvalue = [161, 6]"] ;
1085 -> 1086 ;
1087 [label="gini = 0.211\nsamples = 50\nvalue = [44, 6]"] ;
1086 -> 1087 ;
1088 [label="gini = 0.0\nsamples = 117\nvalue = [117, 0]"] ;
1086 -> 1088 ;
1089 [label="gini = 0.36\nsamples = 51\nvalue = [39, 12]"] ;
1085 -> 1089 ;
1090 [label="X[266] <= -0.028\ngini = 0.488\nsamples = 379\nvalue = [219, 160]"] ;
1082 -> 1090 ;
1091 [label="X[1022] <= 0.188\ngini = 0.465\nsamples = 133\nvalue = [49, 84]"] ;
1090 -> 1091 ;
1092 [label="gini = 0.329\nsamples = 82\nvalue = [17, 65]"] ;
1091 -> 1092 ;
1093 [label="gini = 0.468\nsamples = 51\nvalue = [32, 19]"] ;
1091 -> 1093 ;
1094 [label="X[292] <= -0.09\ngini = 0.427\nsamples = 246\nvalue = [170, 76]"] ;
1090 -> 1094 ;
1095 [label="X[1792] <= -0.037\ngini = 0.319\nsamples = 161\nvalue = [129, 32]"] ;
1094 -> 1095 ;
1096 [label="gini = 0.098\nsamples = 77\nvalue = [73, 4]"] ;
1095 -> 1096 ;
1097 [label="gini = 0.444\nsamples = 84\nvalue = [56, 28]"] ;
1095 -> 1097 ;
1098 [label="gini = 0.499\nsamples = 85\nvalue = [41, 44]"] ;
1094 -> 1098 ;
1099 [label="X[458] <= -0.15\ngini = 0.203\nsamples = 654\nvalue = [579, 75]"] ;
1081 -> 1099 ;
1100 [label="X[1676] <= 0.202\ngini = 0.096\nsamples = 374\nvalue = [355, 19]"] ;
1099 -> 1100 ;
1101 [label="X[1285] <= 0.333\ngini = 0.034\nsamples = 293\nvalue = [288, 5]"] ;
1100 -> 1101 ;
1102 [label="gini = 0.0\nsamples = 243\nvalue = [243, 0]"] ;
1101 -> 1102 ;
1103 [label="gini = 0.18\nsamples = 50\nvalue = [45, 5]"] ;
1101 -> 1103 ;
1104 [label="gini = 0.286\nsamples = 81\nvalue = [67, 14]"] ;
1100 -> 1104 ;
1105 [label="X[1780] <= 0.156\ngini = 0.32\nsamples = 280\nvalue = [224, 56]"] ;
1099 -> 1105 ;
1106 [label="X[1991] <= -0.068\ngini = 0.235\nsamples = 221\nvalue = [191, 30]"] ;
1105 -> 1106 ;
1107 [label="gini = 0.426\nsamples = 65\nvalue = [45, 20]"] ;
1106 -> 1107 ;
1108 [label="X[815] <= -0.147\ngini = 0.12\nsamples = 156\nvalue = [146, 10]"] ;
1106 -> 1108 ;
1109 [label="gini = 0.282\nsamples = 53\nvalue = [44, 9]"] ;
1108 -> 1109 ;
1110 [label="X[719] <= 0.064\ngini = 0.019\nsamples = 103\nvalue = [102, 1]"] ;
1108 -> 1110 ;
1111 [label="gini = 0.0\nsamples = 53\nvalue = [53, 0]"] ;
1110 -> 1111 ;
1112 [label="gini = 0.039\nsamples = 50\nvalue = [49, 1]"] ;
1110 -> 1112 ;
1113 [label="gini = 0.493\nsamples = 59\nvalue = [33, 26]"] ;
1105 -> 1113 ;
1114 [label="X[2272] <= -0.085\ngini = 0.493\nsamples = 595\nvalue = [333, 262]"] ;
1080 -> 1114 ;
1115 [label="X[2125] <= -0.033\ngini = 0.423\nsamples = 171\nvalue = [52, 119]"] ;
1114 -> 1115 ;
1116 [label="gini = 0.219\nsamples = 88\nvalue = [11, 77]"] ;
1115 -> 1116 ;
1117 [label="gini = 0.5\nsamples = 83\nvalue = [41, 42]"] ;
1115 -> 1117 ;
1118 [label="X[162] <= -0.301\ngini = 0.447\nsamples = 424\nvalue = [281, 143]"] ;
1114 -> 1118 ;
1119 [label="X[778] <= -0.006\ngini = 0.488\nsamples = 109\nvalue = [46, 63]"] ;
1118 -> 1119 ;
1120 [label="gini = 0.453\nsamples = 52\nvalue = [34, 18]"] ;
1119 -> 1120 ;
1121 [label="gini = 0.332\nsamples = 57\nvalue = [12, 45]"] ;
1119 -> 1121 ;
1122 [label="X[2010] <= -0.092\ngini = 0.379\nsamples = 315\nvalue = [235, 80]"] ;
1118 -> 1122 ;
1123 [label="X[1196] <= 0.008\ngini = 0.153\nsamples = 120\nvalue = [110, 10]"] ;
1122 -> 1123 ;
1124 [label="gini = 0.311\nsamples = 52\nvalue = [42, 10]"] ;
1123 -> 1124 ;
1125 [label="gini = 0.0\nsamples = 68\nvalue = [68, 0]"] ;
1123 -> 1125 ;
1126 [label="X[68] <= 0.003\ngini = 0.46\nsamples = 195\nvalue = [125, 70]"] ;
1122 -> 1126 ;
1127 [label="X[546] <= 0.13\ngini = 0.5\nsamples = 114\nvalue = [57, 57]"] ;
1126 -> 1127 ;
1128 [label="gini = 0.403\nsamples = 50\nvalue = [14, 36]"] ;
1127 -> 1128 ;
1129 [label="gini = 0.441\nsamples = 64\nvalue = [43, 21]"] ;
1127 -> 1129 ;
1130 [label="gini = 0.269\nsamples = 81\nvalue = [68, 13]"] ;
1126 -> 1130 ;
1131 [label="X[1230] <= 0.158\ngini = 0.479\nsamples = 2369\nvalue = [939, 1430]"] ;
1065 -> 1131 ;
1132 [label="X[682] <= -0.115\ngini = 0.43\nsamples = 1634\nvalue = [512, 1122]"] ;
1131 -> 1132 ;
1133 [label="X[1175] <= -0.082\ngini = 0.332\nsamples = 853\nvalue = [179, 674]"] ;
1132 -> 1133 ;
1134 [label="X[1450] <= -0.094\ngini = 0.462\nsamples = 270\nvalue = [98, 172]"] ;
1133 -> 1134 ;
1135 [label="X[1991] <= -0.087\ngini = 0.331\nsamples = 134\nvalue = [28, 106]"] ;
1134 -> 1135 ;
1136 [label="gini = 0.172\nsamples = 84\nvalue = [8, 76]"] ;
1135 -> 1136 ;
1137 [label="gini = 0.48\nsamples = 50\nvalue = [20, 30]"] ;
1135 -> 1137 ;
1138 [label="X[1189] <= 0.12\ngini = 0.5\nsamples = 136\nvalue = [70, 66]"] ;
1134 -> 1138 ;
1139 [label="gini = 0.427\nsamples = 81\nvalue = [56, 25]"] ;
1138 -> 1139 ;
1140 [label="gini = 0.38\nsamples = 55\nvalue = [14, 41]"] ;
1138 -> 1140 ;
1141 [label="X[327] <= -0.031\ngini = 0.239\nsamples = 583\nvalue = [81, 502]"] ;
1133 -> 1141 ;
1142 [label="X[2296] <= -0.031\ngini = 0.394\nsamples = 189\nvalue = [51, 138]"] ;
1141 -> 1142 ;
1143 [label="X[1602] <= -0.132\ngini = 0.206\nsamples = 103\nvalue = [12, 91]"] ;
1142 -> 1143 ;
1144 [label="gini = 0.037\nsamples = 53\nvalue = [1, 52]"] ;
1143 -> 1144 ;
1145 [label="gini = 0.343\nsamples = 50\nvalue = [11, 39]"] ;
1143 -> 1145 ;
1146 [label="gini = 0.496\nsamples = 86\nvalue = [39, 47]"] ;
1142 -> 1146 ;
1147 [label="X[1861] <= -0.175\ngini = 0.141\nsamples = 394\nvalue = [30, 364]"] ;
1141 -> 1147 ;
1148 [label="gini = 0.352\nsamples = 57\nvalue = [13, 44]"] ;
1147 -> 1148 ;
1149 [label="X[971] <= 0.032\ngini = 0.096\nsamples = 337\nvalue = [17, 320]"] ;
1147 -> 1149 ;
1150 [label="X[520] <= 0.279\ngini = 0.016\nsamples = 246\nvalue = [2, 244]"] ;
1149 -> 1150 ;
1151 [label="gini = 0.0\nsamples = 196\nvalue = [0, 196]"] ;
1150 -> 1151 ;
1152 [label="gini = 0.077\nsamples = 50\nvalue = [2, 48]"] ;
1150 -> 1152 ;
1153 [label="gini = 0.275\nsamples = 91\nvalue = [15, 76]"] ;
1149 -> 1153 ;
1154 [label="X[1991] <= 0.132\ngini = 0.489\nsamples = 781\nvalue = [333, 448]"] ;
1132 -> 1154 ;
1155 [label="X[327] <= -0.081\ngini = 0.45\nsamples = 574\nvalue = [196, 378]"] ;
1154 -> 1155 ;
1156 [label="X[1720] <= -0.211\ngini = 0.495\nsamples = 158\nvalue = [87, 71]"] ;
1155 -> 1156 ;
1157 [label="gini = 0.431\nsamples = 54\nvalue = [17, 37]"] ;
1156 -> 1157 ;
1158 [label="X[1461] <= 0.026\ngini = 0.44\nsamples = 104\nvalue = [70, 34]"] ;
1156 -> 1158 ;
1159 [label="gini = 0.499\nsamples = 50\nvalue = [24, 26]"] ;
1158 -> 1159 ;
1160 [label="gini = 0.252\nsamples = 54\nvalue = [46, 8]"] ;
1158 -> 1160 ;
1161 [label="X[1274] <= -0.115\ngini = 0.387\nsamples = 416\nvalue = [109, 307]"] ;
1155 -> 1161 ;
1162 [label="X[2067] <= 0.002\ngini = 0.495\nsamples = 147\nvalue = [66, 81]"] ;
1161 -> 1162 ;
1163 [label="gini = 0.423\nsamples = 92\nvalue = [28, 64]"] ;
1162 -> 1163 ;
1164 [label="gini = 0.427\nsamples = 55\nvalue = [38, 17]"] ;
1162 -> 1164 ;
1165 [label="X[1221] <= -0.237\ngini = 0.269\nsamples = 269\nvalue = [43, 226]"] ;
1161 -> 1165 ;
1166 [label="gini = 0.477\nsamples = 61\nvalue = [24, 37]"] ;
1165 -> 1166 ;
1167 [label="X[1436] <= 0.032\ngini = 0.166\nsamples = 208\nvalue = [19, 189]"] ;
1165 -> 1167 ;
1168 [label="X[648] <= 0.162\ngini = 0.03\nsamples = 131\nvalue = [2, 129]"] ;
1167 -> 1168 ;
1169 [label="gini = 0.0\nsamples = 81\nvalue = [0, 81]"] ;
1168 -> 1169 ;
1170 [label="gini = 0.077\nsamples = 50\nvalue = [2, 48]"] ;
1168 -> 1170 ;
1171 [label="gini = 0.344\nsamples = 77\nvalue = [17, 60]"] ;
1167 -> 1171 ;
1172 [label="X[554] <= 0.033\ngini = 0.448\nsamples = 207\nvalue = [137, 70]"] ;
1154 -> 1172 ;
1173 [label="gini = 0.254\nsamples = 94\nvalue = [80, 14]"] ;
1172 -> 1173 ;
1174 [label="X[2232] <= 0.185\ngini = 0.5\nsamples = 113\nvalue = [57, 56]"] ;
1172 -> 1174 ;
1175 [label="gini = 0.397\nsamples = 55\nvalue = [40, 15]"] ;
1174 -> 1175 ;
1176 [label="gini = 0.414\nsamples = 58\nvalue = [17, 41]"] ;
1174 -> 1176 ;
1177 [label="X[859] <= 0.262\ngini = 0.487\nsamples = 735\nvalue = [427, 308]"] ;
1131 -> 1177 ;
1178 [label="X[1732] <= -0.329\ngini = 0.442\nsamples = 534\nvalue = [358, 176]"] ;
1177 -> 1178 ;
1179 [label="X[1497] <= -0.054\ngini = 0.44\nsamples = 104\nvalue = [34, 70]"] ;
1178 -> 1179 ;
1180 [label="gini = 0.237\nsamples = 51\nvalue = [7, 44]"] ;
1179 -> 1180 ;
1181 [label="gini = 0.5\nsamples = 53\nvalue = [27, 26]"] ;
1179 -> 1181 ;
1182 [label="X[1115] <= -0.061\ngini = 0.371\nsamples = 430\nvalue = [324, 106]"] ;
1178 -> 1182 ;
1183 [label="X[1912] <= -0.037\ngini = 0.214\nsamples = 213\nvalue = [187, 26]"] ;
1182 -> 1183 ;
1184 [label="X[1339] <= -0.045\ngini = 0.077\nsamples = 124\nvalue = [119, 5]"] ;
1183 -> 1184 ;
1185 [label="gini = 0.18\nsamples = 50\nvalue = [45, 5]"] ;
1184 -> 1185 ;
1186 [label="gini = 0.0\nsamples = 74\nvalue = [74, 0]"] ;
1184 -> 1186 ;
1187 [label="gini = 0.361\nsamples = 89\nvalue = [68, 21]"] ;
1183 -> 1187 ;
